Word,Vector
Sverigedemokraterna,-0.06240415573120117 0.01009951252490282 0.03396516665816307 -0.010111239738762379 -0.029719693586230278 0.008352270349860191 0.01260021049529314 -0.028147535398602486 -0.008867515251040459 0.0005396604537963867 -0.031224654987454414 0.0028473022393882275 0.04436526075005531 0.013170464895665646 0.0019266518065705895 0.02491210773587227 -0.010494319722056389 -0.026362726464867592 -0.048947982490062714 -0.010852955281734467 0.020914647728204727 0.032737940549850464 0.014334970153868198 0.015674082562327385 0.007594647351652384 -0.023744352161884308 0.011750191450119019 -0.01698223687708378 -0.0025497497990727425 0.005601172801107168 -0.0006583477952517569 -0.039349183440208435 -0.02558336779475212 0.029852820560336113 0.022703096270561218 0.015152118168771267 0.025426441803574562 0.020359830930829048 -0.01651260256767273 0.0018114274134859443 0.024143323302268982 0.020461754873394966 -0.008275958709418774 0.0881444662809372 -0.004655638709664345 0.00445936294272542 0.03313155472278595 0.0014907196164131165 -0.004091492388397455 0.010611948557198048 -0.020950831472873688 -0.010200371034443378 -0.006355872843414545 0.008217187598347664 0.012075673788785934 0.016069216653704643 -0.009345733560621738 0.013515084981918335 -0.009747781790792942 -0.02003357745707035 0.0032185951713472605 -0.005996592342853546 -0.003570720087736845 -0.012030095793306828 0.01688007079064846 -0.024149322882294655 -0.009852997027337551 -0.004581383429467678 0.018205080181360245 -0.002909234957769513 -0.016245609149336815 0.012028343975543976 0.005492614582180977 0.0027867001481354237 -0.016857409849762917 -0.002813108032569289 -0.012064306065440178 0.004417073912918568 0.0002845082781277597 -0.004664785694330931 0.010189934633672237 -0.013596764765679836 0.015070446766912937 -0.012991917319595814 -0.003705669194459915 0.023514918982982635 -0.0006435310933738947 -0.011207717470824718 0.0025759427808225155 0.031213432550430298 -0.01168154738843441 -0.013446114026010036 -0.0005100618000142276 -0.005893666762858629 -0.004107899963855743 0.018184779211878777 0.003509811358526349 -0.013046632520854473 -0.019296253100037575 -0.005354986526072025
Familjen Lundell,-0.02820647321641445 0.0415906123816967 0.006215197965502739 -0.005607129540294409 0.00039841822581365705 0.033544182777404785 -0.013447137549519539 0.03168678283691406 0.014733168296515942 0.018072225153446198 -0.03697440028190613 -0.036433733999729156 0.01871483400464058 -0.014730148017406464 0.0028850079979747534 -0.008608309552073479 0.020503833889961243 -0.019415825605392456 -0.026095855981111526 -0.017406318336725235 -0.016202393919229507 0.0017203721217811108 0.008347275666892529 0.011599595658481121 0.002907506423071027 0.006480351556092501 0.005661401432007551 0.008223304525017738 0.0027653384022414684 -0.005539463832974434 0.006338697858154774 0.015583890490233898 0.012873136438429356 0.02000047266483307 0.009951899759471416 -0.004794886335730553 0.02512512169778347 0.022532708942890167 -0.0117996446788311 0.003431515069678426 0.011777382344007492 0.014590026810765266 0.0051185316406190395 0.14492236077785492 -0.027193747460842133 0.0547076053917408 0.003177496138960123 -0.011220831423997879 -0.011789468117058277 -0.013192947953939438 -0.012981430627405643 -0.01540173590183258 0.021439118310809135 -0.011748111806809902 -0.023793404921889305 -0.007553172297775745 -0.0012537159491330385 -0.0012355572544038296 -0.0017513425555080175 -0.013571647927165031 -0.01787085458636284 0.009450755082070827 0.009195438586175442 -0.002301766537129879 -0.03174541890621185 -0.010118509642779827 0.006361224222928286 0.007129226811230183 -0.004637697245925665 0.016916286200284958 -0.00428437814116478 -0.01047992892563343 0.024523308500647545 -0.01881476305425167 -0.025693107396364212 -0.019051015377044678 -0.03346564993262291 -0.0029105194844305515 -0.009987841360270977 -0.009132719598710537 0.012378518469631672 -0.008629731833934784 -0.005062147043645382 -0.003122108755633235 -0.003782047191634774 -0.007529665250331163 0.005316053982824087 0.0011757665779441595 0.0024390965700149536 0.0002195806009694934 -0.023435421288013458 -0.018687855452299118 -0.029375437647104263 -0.003863550955429673 -0.009869897738099098 0.016936790198087692 0.004905653651803732 -0.014515352435410023 -0.023606624454259872 -0.04313042387366295
SVT,-0.3131273686885834 0.3364577889442444 0.33356666564941406 -0.05177284777164459 -0.38834166526794434 -0.18713967502117157 0.09316513687372208 -0.25708332657814026 -0.031491510570049286 -0.05403286591172218 -0.22905509173870087 -0.23878376185894012 0.1314215362071991 -0.00205036997795105 -0.13952158391475677 0.10297617316246033 -0.13073718547821045 -0.10554150491952896 -0.3317641615867615 0.02629893273115158 0.04418431222438812 0.0990566685795784 -0.110369473695755 -0.14801540970802307 -0.07116848975419998 -0.22697001695632935 -0.23358747363090515 0.05479826778173447 -0.1380053609609604 0.035851702094078064 -0.08454284816980362 -0.15445125102996826 0.1642746776342392 0.10225582122802734 -0.01807953603565693 0.07371945679187775 0.24840334057807922 0.08338557183742523 -0.06343890726566315 0.09526228159666061 -0.04738017916679382 -0.18129023909568787 -0.31005263328552246 0.6712579727172852 0.03548313304781914 0.0812494084239006 0.23646846413612366 -0.0011254139244556427 -0.12151625752449036 -0.17170974612236023 -0.20063123106956482 -0.17073342204093933 -0.04151463881134987 0.04272115230560303 -0.048423171043395996 0.10087312757968903 -0.017757732421159744 0.10071289539337158 -0.03332240879535675 0.007742114365100861 -0.21979159116744995 0.2864381670951843 -0.15967467427253723 0.00019052624702453613 -0.15284638106822968 -0.17578402161598206 -0.16430076956748962 -0.05264374613761902 -0.05278073251247406 -0.10367656499147415 -0.11136494576931 -0.02829159051179886 -0.09365642070770264 -0.1244795098900795 -0.1923256814479828 0.041848424822092056 -0.004829023033380508 0.05954534932971001 -0.04407218098640442 0.13643833994865417 0.09889185428619385 -0.1212952584028244 -0.07044326514005661 -0.1849956512451172 -0.15653304755687714 0.049731917679309845 0.16806761920452118 0.07229693979024887 0.04878466576337814 0.1800207495689392 0.019142702221870422 0.06047183275222778 -0.1330147087574005 0.11037851870059967 -0.09800360351800919 -0.017133740708231926 -1.1920928955078125e-06 0.33401426672935486 -0.12810617685317993 -0.12409278750419617
TV4,-0.2978140711784363 0.34351009130477905 0.32459771633148193 -0.025911960750818253 -0.35041752457618713 -0.16133959591388702 0.15119320154190063 -0.17877373099327087 -0.1849382519721985 -0.02635093778371811 -0.14528128504753113 -0.3202546238899231 0.24453780055046082 -0.0718347355723381 -0.13796237111091614 0.10474254190921783 -0.13636568188667297 -0.11419513821601868 -0.2960960865020752 0.004560289904475212 0.09625089913606644 0.03569701313972473 -0.13570088148117065 0.04956425353884697 0.005649559199810028 -0.20314109325408936 -0.2800494432449341 0.06245160102844238 -0.17316308617591858 -0.010645993053913116 0.046852368861436844 -0.2450195848941803 0.02266102284193039 0.024394571781158447 0.0020895395427942276 0.13560359179973602 0.16165880858898163 0.25584107637405396 -0.15285858511924744 0.13669317960739136 -0.1636873483657837 -0.37135982513427734 -0.10564850270748138 0.6748077273368835 0.006279394030570984 0.10232643783092499 0.3077959418296814 0.0025264769792556763 -0.013835247606039047 -0.1747024655342102 -0.24679803848266602 -0.24508588016033173 -0.16993136703968048 0.08644019812345505 -0.026791125535964966 -0.06848129630088806 0.0207313671708107 0.0953332930803299 0.0045349933207035065 0.034980408847332 -0.30251970887184143 0.4276227355003357 -0.12836205959320068 0.12974604964256287 -0.1572808027267456 -0.12689509987831116 -0.256201833486557 -0.23499301075935364 0.02321745827794075 -0.057129718363285065 -0.047037698328495026 0.02807486802339554 -0.022262591868638992 -0.0885220468044281 -0.16550850868225098 0.004994262009859085 0.01628270372748375 0.04407310485839844 -0.08113354444503784 0.1421067863702774 0.015374904498457909 -0.14202064275741577 -0.21419981122016907 -0.24631749093532562 -0.1734570413827896 0.032622866332530975 0.09570968896150589 0.04842795059084892 0.030450202524662018 0.16507486999034882 0.014595936983823776 0.04946308210492134 -0.05850968882441521 0.07407234609127045 -0.09389179944992065 0.01585581712424755 0.05888805165886879 0.2862832248210907 -0.14316481351852417 -0.20877134799957275
Aftonbladet,-0.05984910950064659 0.05230157449841499 0.041727710515260696 -0.017705680802464485 -0.06196485087275505 0.006299117114394903 0.035202670842409134 -0.03847474604845047 -0.011677093803882599 0.04116273298859596 -0.034304503351449966 -0.06798931956291199 0.037957485765218735 -0.0060365772806108 -0.03771445155143738 0.0185623187571764 -0.01552044041454792 -0.008113289251923561 -0.06023281440138817 0.0011767352698370814 0.0365837924182415 0.009315941482782364 -0.02549428679049015 -0.025168893858790398 -0.008851050399243832 -0.042418964207172394 -0.039548587054014206 -0.02254016511142254 -0.00215166830457747 0.017262816429138184 0.017947109416127205 -0.06222357228398323 0.017912542447447777 -0.015327097848057747 -0.0179074015468359 -0.011084756813943386 0.016353627666831017 -0.004058795515447855 -0.032630909234285355 -0.008411730639636517 -0.010053728707134724 -0.012835863046348095 -0.020614711567759514 0.13199323415756226 -0.003589117666706443 0.010037334635853767 0.034695323556661606 -0.013026798143982887 -0.0330301858484745 -0.030773961916565895 -0.03579537570476532 0.006375286262482405 0.028147468343377113 -0.008959163911640644 -0.007920335046947002 0.010263371281325817 -0.01971510797739029 -0.005210496950894594 0.010575751774013042 -0.01944480836391449 -0.02071511559188366 0.03709396347403526 -0.004314738791435957 0.0075421929359436035 8.469541171507444e-06 -0.049963101744651794 0.0007339619332924485 -0.035705432295799255 0.039651643484830856 -0.01784072443842888 -0.022886425256729126 0.006078467704355717 0.010252445936203003 0.009037311188876629 -0.005187192466109991 -0.016520611941814423 -0.0036277712788432837 0.005114992149174213 0.01579594798386097 0.010285227559506893 0.04872966930270195 0.03166278079152107 -0.000841940229292959 -0.02167651057243347 -0.008392988704144955 0.04701212793588638 0.02351999096572399 0.022071991115808487 -0.018849346786737442 0.030080562457442284 -0.00356049626134336 -0.011650866828858852 -0.010562809184193611 0.004882197827100754 -0.00562185887247324 0.02235894650220871 -0.009194361977279186 0.020146531984210014 -0.03351619839668274 -0.038944095373153687
Sveriges Radio,-0.04172777757048607 0.05199279636144638 0.02862360328435898 -0.021381288766860962 -5.011508983443491e-05 -0.02532593160867691 0.011418512091040611 -0.023535549640655518 -0.023036714643239975 -0.00920704286545515 -0.026144951581954956 -0.03051619790494442 0.0024639684706926346 -0.029376961290836334 -0.0028961249627172947 0.00898455549031496 0.028575599193572998 -0.006095993798226118 -0.04892059788107872 0.021744495257735252 0.011572856456041336 0.01630229689180851 -0.013567088171839714 -0.0021727397106587887 0.004696432501077652 -0.005860568955540657 0.00199520168825984 0.008755701594054699 0.009334433823823929 -0.000352972187101841 0.0347972996532917 -0.03380594402551651 -0.012249840423464775 0.04442628473043442 -0.014642658643424511 0.03953274339437485 0.02790714055299759 -0.0044782026670873165 0.01933414861559868 0.005781668704003096 -0.016268227249383926 0.017210599035024643 0.007702087517827749 0.22317075729370117 0.06410139054059982 0.07821103930473328 0.019817637279629707 0.0003043323231395334 -0.0064896270632743835 -0.016687428578734398 -0.03439314290881157 -0.019390031695365906 0.010119305923581123 -0.001482079504057765 0.005831927992403507 0.008685624226927757 0.0038281590677797794 0.0023864402901381254 0.01636560447514057 -0.0074430303648114204 0.021842792630195618 0.010503246448934078 -0.018858570605516434 -0.021962661296129227 0.001545832841657102 -0.01780705526471138 -0.0035012410953640938 -0.00206425110809505 -0.03694496676325798 0.004076537676155567 0.008429628796875477 -0.00500782486051321 0.0224403478205204 -0.02303687110543251 -0.044593196362257004 -0.017955375835299492 -0.025556355714797974 -0.026845483109354973 -0.0016094337916001678 -0.0012246973346918821 -0.003543475177139044 -0.006123512051999569 0.0026693164836615324 -0.01299656555056572 -0.016035154461860657 0.022039007395505905 0.007014093920588493 0.008147706277668476 0.003535466967150569 0.009240183979272842 0.011768782511353493 0.0035056057386100292 0.004193104337900877 -0.003080212278291583 -0.02735098823904991 -0.0006318213418126106 -0.015903256833553314 0.014570153318345547 0.0018677389016374946 -0.034028783440589905
Expressen,-0.07155057042837143 0.07679601013660431 0.04041401296854019 -0.0343286357820034 -0.06366068124771118 0.007726000621914864 0.03936457633972168 -0.03228959068655968 -0.04271374270319939 0.017139624804258347 -0.044070594012737274 -0.08662635833024979 0.035475779324769974 -0.013093823567032814 -0.017193179577589035 0.022197745740413666 -0.017718158662319183 0.009162716567516327 -0.07066340744495392 0.005081331357359886 0.02627081423997879 0.03352871164679527 -0.04544168710708618 -0.03319553658366203 -0.017541319131851196 -0.05132443085312843 -0.03186715394258499 -0.04294135794043541 -0.007834212854504585 0.03740246221423149 0.019037624821066856 -0.07479383051395416 0.025514796376228333 -0.012930121272802353 -0.024420177564024925 -0.005827545188367367 0.03316622972488403 -0.0011311043053865433 -0.04026282578706741 -0.025505967438220978 0.023659512400627136 -0.016815906390547752 -0.03299174830317497 0.18046517670154572 -0.0030455421656370163 0.03800961375236511 0.028054816648364067 -0.009381487034261227 -0.021738983690738678 -0.03572025150060654 -0.05804729461669922 0.016146885231137276 0.0006397155812010169 0.021748516708612442 -0.038321614265441895 0.034632086753845215 -0.04070279374718666 -0.009326707571744919 -0.002796902321279049 -0.010511897504329681 0.01115630567073822 0.008999201469123363 -0.025330591946840286 -0.006638641469180584 0.00040924479253590107 -0.03627903386950493 -0.003575549926608801 -0.0698365867137909 0.03050876595079899 -0.026167811825871468 -0.04465881362557411 0.0034225392155349255 0.013510474003851414 -0.028534630313515663 -0.002776984591037035 -0.02233797498047352 -0.0028779753483831882 0.00036558532156050205 0.02197643369436264 0.007299698889255524 0.059031277894973755 0.027344660833477974 -0.005204862914979458 -0.07476340234279633 -0.024028796702623367 0.03344759717583656 0.035479359328746796 0.0301973819732666 -0.01594669371843338 0.033100325614213943 0.004038825165480375 -0.01875271089375019 -0.032604098320007324 0.019752223044633865 -0.029225941747426987 0.017309805378317833 -0.024384379386901855 0.04683937877416611 -0.04391134902834892 -0.04816703125834465
Polisen,-0.10252749919891357 0.06283485144376755 0.12386173009872437 -0.0955754816532135 -0.06398143619298935 0.017541775479912758 0.04156607761979103 -0.06758534908294678 -0.074297234416008 -0.09793558716773987 -0.05103664845228195 -0.010544536635279655 -0.0107664093375206 0.047407910227775574 0.07489490509033203 0.012748035602271557 0.05179344862699509 0.027404500171542168 -0.10383091866970062 -0.0754888653755188 -0.03657594695687294 0.13787950575351715 0.0022457342129200697 -0.04351120814681053 -0.07781501859426498 -0.04984332621097565 -0.04808352515101433 -0.09726977348327637 -0.0013386340579017997 0.014315049163997173 0.03377464413642883 -0.03365293890237808 0.02335132472217083 0.055466484278440475 0.012690527364611626 0.0018349327147006989 -0.10521026700735092 0.07325710356235504 -0.07300572842359543 -0.03321579098701477 -0.03695793077349663 -0.05010165274143219 -0.079926997423172 0.24653737246990204 0.04383910447359085 0.0082887914031744 0.04549691081047058 -0.011606447398662567 -0.08513011038303375 0.015018284320831299 -0.05371987074613571 0.01597478613257408 0.03761313855648041 -0.016788257285952568 -0.05388474464416504 0.0966329276561737 -0.05555036664009094 0.010559335350990295 -0.0061009349301457405 -0.003792187897488475 -0.04396029934287071 -0.04327860474586487 0.04047778248786926 0.014133831486105919 0.00913234706968069 -0.0789235308766365 0.0607609823346138 0.005238100420683622 -0.08102716505527496 0.08148477971553802 -0.05351654812693596 0.018719784915447235 -0.00440761586651206 -0.03401894494891167 -0.004621441476047039 0.02786318026483059 -0.016232764348387718 0.003980693873018026 -0.044420477002859116 -0.0030280244536697865 0.014789970591664314 -0.014690968208014965 0.038376521319150925 0.042272310703992844 0.052448391914367676 0.0876360684633255 0.10453405231237411 0.03497587889432907 0.04731741175055504 0.020489513874053955 -0.027238300070166588 0.00996516551822424 -0.044273629784584045 -5.974263694952242e-05 -0.02006855234503746 0.04255890101194382 0.03888062760233879 -0.016123462468385696 -0.021047016605734825 -0.07609377801418304
Socialdemokraterna,-0.04760534316301346 0.00785291101783514 0.05461696907877922 -0.029017725959420204 -0.03684249147772789 0.017497720196843147 0.017241768538951874 -0.02627827413380146 -0.0065195998176932335 -0.019173970445990562 -0.024563251063227654 -0.002936229109764099 0.04832613095641136 0.0015408818144351244 0.01736258529126644 0.027623824775218964 -0.0057477024383842945 -0.016978304833173752 -0.0342380590736866 0.0006918603903613985 0.020132314413785934 0.037833791226148605 0.024572420865297318 0.010684260167181492 0.015471281483769417 0.0011900268727913499 0.03541238605976105 -0.004429314285516739 -0.013667485676705837 0.007583696860820055 0.002104880753904581 -0.021210869774222374 -0.007470793556421995 0.03235355019569397 -0.0023783924989402294 -7.947183621581644e-05 0.03229442983865738 0.007670569233596325 -0.0069550103507936 -0.0016070937272161245 0.021415816619992256 0.024801313877105713 -0.022587712854146957 0.09869436919689178 0.0003412961959838867 0.007304885890334845 0.041327644139528275 0.012122992426156998 -0.012484446167945862 -0.014056065119802952 -3.0086321203270927e-05 -0.0013946873368695378 0.005438612774014473 0.007405014708638191 -0.003422020934522152 0.029058946296572685 -0.010510911233723164 0.010499686002731323 0.0059264530427753925 -0.020103387534618378 -0.0035297079011797905 -0.03153353929519653 -0.018444159999489784 -0.027281565591692924 0.007112482562661171 -0.011162088252604008 0.01835639216005802 -0.0016772742383182049 0.01725529320538044 -0.003080900991335511 -0.03225928917527199 0.0010216240771114826 0.0065979850478470325 -0.0033651371486485004 -0.01759796030819416 -0.0005186763592064381 -0.01705542765557766 0.011730869300663471 0.001330702449195087 -0.011644714511930943 0.008567043580114841 -0.0037911117542535067 0.015101756900548935 0.0020899688825011253 0.004288967233151197 0.013752931728959084 -0.007653800770640373 -0.014575554057955742 -0.0013925406383350492 0.050269752740859985 -0.005923942197114229 -0.020002510398626328 0.006459743715822697 -0.012554850429296494 -0.009021935053169727 0.026000306010246277 0.013890198431909084 -0.020358992740511894 -0.019966917112469673 -0.0025636448990553617
Moderaterna,-0.06950580328702927 0.003859116230159998 0.06552606076002121 -0.03114418499171734 -0.06733386218547821 0.0019173913169652224 0.03734157234430313 -0.04236617311835289 -0.0029786035884171724 -0.02479909360408783 -0.033398453146219254 -0.009853280149400234 0.07724415510892868 -0.005487083923071623 0.021736731752753258 0.06403296440839767 -0.01583714783191681 -0.037144485861063004 -0.08000103384256363 -0.016341842710971832 0.0388113334774971 0.045434124767780304 0.06106254458427429 0.03596048429608345 0.024426087737083435 0.007141002453863621 0.06049732491374016 -0.008385714143514633 0.0017560903215780854 0.010548393242061138 0.015299111604690552 -0.03431243076920509 -0.023906107991933823 0.031032228842377663 -0.0252691600471735 0.029643982648849487 0.05891871079802513 0.018790213391184807 -0.005050505045801401 0.018383532762527466 0.03556105121970177 0.011317414231598377 -0.03500399738550186 0.15278314054012299 0.00897452887147665 0.012337982654571533 0.053254690021276474 0.023424789309501648 -0.012393655255436897 -0.02103760652244091 -0.002847708063200116 -0.005252388305962086 -0.007549892645329237 0.0023691735696047544 0.0031553362496197224 0.05673796683549881 -0.008715933188796043 0.003253091825172305 -0.019312238320708275 -0.0336952768266201 0.017483141273260117 -0.04027432203292847 -0.04549173638224602 -0.02065366692841053 0.010653695091605186 -0.034093018621206284 0.041294511407613754 -0.0026818544138222933 0.020300716161727905 -0.004997029900550842 -0.05255849286913872 0.02565261535346508 0.025393983349204063 -0.0013002426130697131 -0.02381070889532566 -0.0073500946164131165 -0.007523831911385059 0.01969088427722454 -0.005653686821460724 -0.022491801530122757 0.021894164383411407 0.01166135910898447 -0.006344038527458906 0.003187559312209487 0.009132920764386654 0.016770577058196068 -0.01230732910335064 -0.019093802198767662 0.004252632614225149 0.0502760224044323 -0.03136824816465378 -0.025227848440408707 -0.0028435455169528723 -0.010368931107223034 0.00497013283893466 0.017433924600481987 0.007675765547901392 -0.046748556196689606 -0.05440634489059448 -0.023610128089785576
Mauri Hermundsson,-0.002252404112368822 0.04518028348684311 0.021680094301700592 -0.017956899479031563 -0.0073155611753463745 0.04837634786963463 0.0023637202102690935 0.01587558723986149 -0.014419766142964363 0.020539984107017517 0.01898566074669361 -0.014334446750581264 -0.01204981654882431 -0.01198053639382124 -0.013923375867307186 0.012395143508911133 0.015152187086641788 0.006329222582280636 -0.013577982783317566 0.023027362301945686 0.011093326844274998 0.04347992315888405 0.005145301576703787 -0.011475506238639355 0.028234126046299934 0.005929783917963505 -0.010838831774890423 0.01592838764190674 -0.015739263966679573 -0.01692894473671913 0.020765691995620728 0.0015711075393483043 -0.00791194662451744 0.01644699089229107 0.0045587457716465 0.013539762236177921 0.014769087545573711 0.0035239013377577066 -0.012535836547613144 0.01656741462647915 0.002868914743885398 0.003872757777571678 -0.023285776376724243 0.16156522929668427 -0.04826654866337776 0.05821307748556137 0.006643671076744795 -0.03527975082397461 -0.005861056037247181 -0.020843252539634705 -0.02500465139746666 -0.0009990101680159569 0.01593306101858616 -0.043425120413303375 0.009238618426024914 -0.014076785184442997 0.004157833755016327 0.026757091283798218 -0.027046293020248413 0.011162823997437954 -0.01113842986524105 0.020735956728458405 -0.006685479544103146 -0.007019610144197941 0.01451896969228983 0.00817873701453209 0.01940169744193554 0.010383800603449345 -0.015794293954968452 0.0006339375395327806 0.025507021695375443 -0.011870563961565495 0.03358924016356468 -0.007691868580877781 -0.019653763622045517 -0.013575201854109764 -0.027488408610224724 -0.02281826175749302 0.009432029910385609 -0.007249102927744389 0.013905121944844723 0.019228709861636162 0.01616102270781994 -0.0033098584972321987 -0.017439380288124084 0.006376784294843674 0.006206891033798456 -0.007676822133362293 0.006816406734287739 0.00297646876424551 -0.028380468487739563 -0.00015735031047370285 -0.005394722800701857 0.01437926571816206 0.003955902066081762 -0.00813966989517212 0.030631568282842636 -0.002496483735740185 -0.00418474106118083 0.0025973364245146513
JLC,0.08781511336565018 0.18430586159229279 -0.0038614682853221893 0.3395918011665344 -0.13455982506275177 -0.21908527612686157 0.15927377343177795 -0.15417547523975372 -0.1031598299741745 0.2670974135398865 0.4143129587173462 -0.30208370089530945 0.08725713938474655 -0.09972292184829712 0.05898864194750786 0.17229290306568146 0.043022722005844116 0.24122501909732819 0.05804293975234032 0.22121870517730713 0.15978610515594482 -0.3134385347366333 -0.036160796880722046 -0.0859488919377327 -0.14319168031215668 -0.12538814544677734 0.18035583198070526 -0.15575078129768372 -0.017953265458345413 0.06122304126620293 0.2302054762840271 0.017087874934077263 -0.13855557143688202 -0.09085014462471008 -0.09754349291324615 0.010578584857285023 -0.014203020371496677 -0.09315097332000732 0.09271664172410965 -0.052923910319805145 0.05261260271072388 -0.0007279040291905403 -0.16240531206130981 0.05270206183195114 -0.053034890443086624 -0.1527854949235916 0.1395193636417389 -0.04840764403343201 -0.11718981713056564 0.12325185537338257 0.11984048783779144 0.1412161886692047 0.17233125865459442 -0.0688236653804779 -0.013290971517562866 -0.035079315304756165 -0.24132609367370605 -0.0717543363571167 -0.08914831280708313 0.004357189871370792 0.08857342600822449 -0.025125080719590187 -0.1333954781293869 0.005356257315725088 -0.11452004313468933 -0.05404088646173477 0.03568717837333679 -0.1444276124238968 -0.20871812105178833 0.051821593195199966 0.044392772018909454 0.18157482147216797 -0.08763626217842102 0.125117227435112 0.041125863790512085 -0.06463934481143951 0.08886124193668365 0.03814702853560448 -0.009158189408481121 -0.01718754880130291 0.02344169095158577 -0.12560893595218658 0.04734298586845398 0.17946642637252808 0.04631182551383972 -0.0087435906752944 0.017053579911589622 -0.09098318219184875 -0.0655161440372467 -0.05816065892577171 0.010708615183830261 0.060633767396211624 0.004938041791319847 -0.010182861238718033 -0.03266028314828873 -0.03333074599504471 -0.024134865030646324 0.015351183712482452 0.09127230942249298 0.15635406970977783
Riks,-0.0566970556974411 0.09253913164138794 0.39647579193115234 0.01824256405234337 -0.15584544837474823 -0.1468074917793274 0.06363719701766968 -0.10065905749797821 0.15640339255332947 -0.09523387998342514 0.017120227217674255 -0.23610737919807434 0.037818655371665955 0.012468380853533745 0.09720243513584137 0.11850585788488388 -0.00839005783200264 0.03313716500997543 -0.05173522233963013 -0.3142765164375305 -0.05974782630801201 -0.02621999755501747 0.045166976749897 0.046700358390808105 0.11698564887046814 -0.062136679887771606 0.028611665591597557 -0.08491387218236923 -0.07195772230625153 -0.15036220848560333 -0.032369114458560944 -0.0014632148668169975 -0.1491382122039795 -0.012562613934278488 0.00827447697520256 0.09186473488807678 0.08791809529066086 0.06643800437450409 0.0947665199637413 0.010827998630702496 0.030178677290678024 0.016156885772943497 -0.007487679831683636 0.37754353880882263 -0.026563536375761032 0.061464011669158936 0.11536850780248642 -0.0303269624710083 -0.04686988890171051 -0.10290096700191498 0.006609681993722916 0.007514787372201681 0.1175103411078453 -0.03560798615217209 -0.1367076337337494 0.04912792891263962 0.034790560603141785 -0.004501442890614271 0.08525564521551132 0.1142551600933075 -0.34114885330200195 -0.06550305336713791 0.053818266838788986 0.04546084254980087 -0.15891219675540924 -0.06490212678909302 0.014156466349959373 0.07519789040088654 0.016337579116225243 0.0016292731743305922 -0.055315837264060974 0.10912322998046875 -0.036201026290655136 -0.031698718667030334 -0.013500462286174297 -0.05247432738542557 -0.09005121886730194 0.09802810847759247 0.05541406199336052 0.09648668020963669 -0.08755186200141907 -0.25282564759254456 0.0008376303012482822 0.00724308704957366 -0.17878125607967377 0.09733294695615768 -0.03188394010066986 0.026442809030413628 0.007016148418188095 0.03964965417981148 -0.015501130372285843 0.01680728979408741 -0.005624811165034771 0.04293845593929291 -0.05440821498632431 0.05081607401371002 0.05682302638888359 0.24308298528194427 0.08669653534889221 -0.019258353859186172
IJustWantToBeCool,-0.013049440458416939 0.06750127673149109 -0.011638878844678402 0.019191507250070572 -0.03101610206067562 0.0007477160543203354 0.005016692448407412 -0.008028829470276833 0.014354320243000984 0.02648255042731762 0.022568069398403168 -0.0413469597697258 -0.00952575821429491 -0.023959478363394737 -0.034013401716947556 -0.027348428964614868 0.0044160885736346245 0.020380351692438126 -0.021169885993003845 -0.006325899623334408 0.030552467331290245 0.03790882229804993 -0.013976311311125755 0.01990465261042118 0.008851996622979641 -0.003962638322263956 0.0008253217674791813 0.03558221459388733 -0.013727150857448578 -0.004362110979855061 -0.01743405871093273 -0.038053616881370544 0.007255729753524065 0.045133672654628754 0.0016991528682410717 0.03035486489534378 -0.0256882905960083 -0.0024284683167934418 -0.0057817427441477776 0.019479721784591675 -0.013365260325372219 -0.007478712126612663 0.001276523806154728 0.1002795547246933 -0.00931265577673912 0.021706443279981613 0.022112080827355385 0.00337308831512928 -0.010646536014974117 0.007573956623673439 -0.007839227095246315 -0.008538827300071716 -0.0025609612930566072 0.02411278896033764 -0.008980866521596909 -0.008551793172955513 0.015015287324786186 0.012568973004817963 0.015049662441015244 -0.01913478411734104 -0.03550563007593155 0.005494274199008942 0.02419777400791645 0.005879719275981188 0.028606340289115906 -0.01071453932672739 -0.025508064776659012 -0.012540023773908615 0.005837047006934881 -0.0093507906422019 -0.017713986337184906 -0.010332649573683739 0.01693323813378811 -0.004726065322756767 -0.008044920861721039 0.025419332087039948 -0.02913135103881359 0.011776252649724483 -0.011239802464842796 0.013010689057409763 0.010728131979703903 -0.006870895624160767 0.005310878157615662 -0.018861621618270874 0.01279551349580288 0.0033450345508754253 0.00469831982627511 -0.023638473823666573 -0.010077184066176414 0.010173175483942032 -0.008200034499168396 -0.0023574011866003275 -0.0071263741701841354 0.0036004623398184776 -0.016580987721681595 0.01746683567762375 0.024259760975837708 -0.002189492806792259 -0.020108729600906372 -0.03287540748715401
Emil Hansius,-0.059669602662324905 0.05772457644343376 0.027522319927811623 -0.01451314426958561 -0.017192436382174492 0.096842460334301 -0.03766145184636116 0.06156026944518089 -0.0072547378949820995 0.040873996913433075 -0.0012883901363238692 -0.040110912173986435 0.016930434852838516 -0.02192259579896927 0.012985988520085812 -0.03312346339225769 0.016326691955327988 0.024169249460101128 0.008105040527880192 -0.009377099573612213 -0.007575158961117268 -0.0016173027688637376 -0.01335566770285368 -0.024907415732741356 0.011698253452777863 0.013537183403968811 0.00939945038408041 0.0034368664491921663 0.022979173809289932 0.002524407347664237 0.017530914396047592 -0.017302077263593674 -3.7440284359036013e-05 0.0250796377658844 0.00541690131649375 -0.025772705674171448 0.014151873998343945 -0.005518556572496891 0.00032827258110046387 0.00506747467443347 0.028144001960754395 0.000606551009695977 0.009638937190175056 0.26128077507019043 0.005620505660772324 0.07956377416849136 -0.016583142802119255 -0.008124901913106441 -0.017500383779406548 -0.020492563024163246 -0.017993440851569176 -0.017965922132134438 -0.008689328096807003 -0.011038153432309628 0.005070229526609182 -0.007908928208053112 0.005838880315423012 0.009133430197834969 0.000784082745667547 -0.031660545617341995 0.00943959690630436 0.023187046870589256 0.0017060600221157074 -0.02160293608903885 0.019390348345041275 -0.016412576660513878 -0.014377362094819546 0.01309804804623127 0.001148552866652608 0.0049652657471597195 -0.031870026141405106 -0.004455766174942255 0.08297660201787949 -0.005748926196247339 -0.04476400837302208 -0.03485103324055672 0.008173891343176365 0.007297375239431858 0.007676390465348959 -0.0045453323982656 0.023026421666145325 -0.04117889329791069 0.026192769408226013 0.01818336918950081 -0.00626366725191474 0.011496340855956078 -0.02005445770919323 0.030087798833847046 0.017742011696100235 0.012101921252906322 -0.029675399884581566 0.015376339666545391 -0.03773786127567291 0.007717669941484928 0.048759978264570236 0.0367952436208725 0.042795609682798386 -0.0039629824459552765 -0.002927332418039441 -0.03469821810722351
Försvarsmakten,-0.08282516151666641 -0.01565638743340969 0.0732770636677742 -0.027609605342149734 -0.04833636060357094 0.004348653834313154 -0.030827846378087997 -0.007249912712723017 -0.026558229699730873 -0.02033788338303566 0.017311569303274155 -0.009767972864210606 0.026562882587313652 0.00741235539317131 0.025133594870567322 0.012504764832556248 -0.00024386553559452295 0.02102568745613098 -0.018177054822444916 -0.013000928796827793 0.027417900040745735 0.04646575450897217 -0.0051284837536513805 -0.0034876943100243807 -0.015350705944001675 -0.009118563495576382 -0.004668881185352802 -0.017555536702275276 0.0012252653250470757 -0.002316277241334319 0.01359181385487318 0.0022743481677025557 0.004359448794275522 0.050269965082407 -0.046022579073905945 -0.004814346320927143 0.014405595138669014 -0.01714719459414482 0.024530675262212753 -0.02811664529144764 -0.021536702290177345 -0.02402792125940323 -0.03559456393122673 0.10428965836763382 0.014573780819773674 0.020341167226433754 0.054849639534950256 0.017960254102945328 -0.01875324547290802 0.017807835713028908 0.02453024685382843 -0.05540093779563904 0.006560833193361759 0.01743234507739544 -0.05849336087703705 0.007166048977524042 -0.041757579892873764 0.028597958385944366 0.029021453112363815 0.027055509388446808 0.00876600667834282 0.03108004294335842 -0.026989802718162537 0.001272240886464715 -0.013487976975739002 -0.04908875375986099 0.034490104764699936 -0.03818443790078163 0.001278475858271122 0.056799717247486115 -0.023241717368364334 0.029527055099606514 -0.002502228831872344 -0.010198627598583698 -0.008740151301026344 0.017427442595362663 -0.017634432762861252 0.010514909401535988 0.036474596709012985 0.023914871737360954 0.04317270964384079 0.04174227640032768 0.013276305049657822 -0.017076414078474045 0.029611511155962944 -0.02615462616086006 0.021873839199543 -0.026284392923116684 0.01401213463395834 0.0002063163265120238 -0.016304876655340195 0.0061101452447474 0.0017280172323808074 0.0153647530823946 -0.026637649163603783 -0.016868945211172104 0.006270484998822212 0.025649620220065117 -0.0172740388661623 -0.021885275840759277
Henrik Jönsson,-0.042517270892858505 0.04428573697805405 0.024463534355163574 -0.00934719666838646 -0.017969464883208275 0.014302032999694347 -0.020378559827804565 -0.010651293210685253 -0.0022251661866903305 0.022724956274032593 0.008582379668951035 -0.033841148018836975 0.016392862424254417 -0.00851671677082777 -0.021098800003528595 0.003187148831784725 -0.008887993171811104 0.01946224272251129 -0.019666537642478943 -0.008157545700669289 -0.011028841137886047 0.05822666734457016 -0.0054039545357227325 -0.012591749429702759 0.0032683671452105045 0.014188168570399284 0.0008427737047895789 -0.011612113565206528 0.013642577454447746 -0.01155147235840559 0.006919832434505224 0.008120350539684296 0.004785704426467419 0.005724070593714714 -0.005810159724205732 0.005938807502388954 0.015320820733904839 -0.012415396980941296 -0.01408257707953453 0.012331970036029816 -0.010561631992459297 -0.012491157278418541 -0.015427511185407639 0.2640722990036011 -0.05346379429101944 0.09685476869344711 -0.010791945271193981 -0.03001239523291588 0.004889696836471558 -0.012556901201605797 -0.039503615349531174 -0.002322861459106207 0.012186562642455101 -0.003686618059873581 -0.005235583521425724 -0.007919691503047943 0.027285337448120117 0.02260165475308895 -0.006635312922298908 0.0021881218999624252 -0.0023415591567754745 0.030995896086096764 0.009585320018231869 0.005018511787056923 -0.0027862470597028732 0.010808869265019894 0.01754577085375786 0.0016788006760179996 -0.010424332693219185 0.00949233677238226 0.004180711694061756 -0.011969725601375103 0.06898324191570282 0.005785015877336264 -0.038475990295410156 -0.04054497927427292 -0.033194247633218765 -0.01738271862268448 0.002792730461806059 0.006315913982689381 -0.01604863628745079 0.006626167334616184 -0.004535335581749678 -0.00201384536921978 -0.029377570375800133 -0.01113540306687355 0.0003762245178222656 -0.005140441004186869 0.006852379068732262 0.019622284919023514 -0.03783170506358147 -0.019547738134860992 -0.03393702954053879 -0.007438912056386471 0.002169074025005102 0.0067364866845309734 0.04558397829532623 -0.00894554890692234 -0.006251608952879906 -0.005860644392669201
Vänsterpartiet,-0.061618197709321976 0.006852725520730019 0.066275954246521 -0.02232128009200096 -0.045516237616539 0.033971238881349564 0.017185945063829422 -0.045397598296403885 -0.0032736053690314293 -0.03298052400350571 -0.03228030353784561 -0.006058972794562578 0.06755632907152176 -0.00096566864522174 -0.002523857867345214 0.023450329899787903 0.006289543118327856 -0.03568891063332558 -0.05548219382762909 -0.003808974288403988 0.04500836879014969 0.051654186099767685 0.0159472469240427 0.01845349743962288 0.015091014094650745 -0.046440042555332184 0.03446025401353836 -0.0026262563187628984 0.014650109224021435 0.01811470091342926 -0.0023020862136036158 -0.02636781707406044 -0.010119603946805 0.03493780642747879 0.0027081510052084923 0.0022135721519589424 0.048741068691015244 0.009260590188205242 0.005738828331232071 -0.015462256968021393 0.05500701814889908 0.03862553834915161 -0.01128979679197073 0.11062747240066528 -0.007942065596580505 0.016547268256545067 0.04960731044411659 0.012732681818306446 -0.012731858529150486 -0.0031895048450678587 -0.011911747045814991 -0.008618732914328575 -0.018337706103920937 0.01524947676807642 -0.00962920393794775 0.040958769619464874 -0.009234890341758728 0.01870076172053814 -0.007648907136172056 -0.008944742381572723 -0.006460251752287149 -0.054382629692554474 -0.011265196837484837 -0.001039383583702147 0.018149888142943382 -0.018591105937957764 0.031958915293216705 -0.029872708022594452 0.019224591553211212 0.01497503463178873 -0.032752420753240585 0.008308731019496918 0.002447019563987851 -0.0002029435127042234 -0.011517230421304703 0.011826740577816963 -0.01968776248395443 0.012004011310636997 0.0065330383367836475 -0.010034361854195595 0.03060907870531082 -0.02252201922237873 0.013656500726938248 0.000912007293663919 0.010035859420895576 0.02587134949862957 -0.012724337168037891 -0.018834948539733887 -0.005870131775736809 0.0445171557366848 -0.017733577638864517 -0.007112521678209305 0.013598192483186722 0.002688983455300331 -0.010866789147257805 0.019406750798225403 0.01104817446321249 -0.04916113242506981 -0.014098558574914932 -0.010995998047292233
Newsner Ny,-0.026234973222017288 0.08902343362569809 -0.030103201046586037 0.07683704048395157 -0.00018171686679124832 0.019070489332079887 0.06599731743335724 -0.04191203415393829 0.00719391368329525 0.039757635444402695 -0.04209623485803604 -0.01886904053390026 0.013767869211733341 -0.017117273062467575 0.017716189846396446 -0.010268503800034523 -0.02392471395432949 -0.02126677706837654 -0.04917054623365402 0.0032825791276991367 0.04839838668704033 0.05538521334528923 -0.029279977083206177 0.0028629356529563665 -0.02194148115813732 -0.030203480273485184 -0.017828261479735374 -0.02702176757156849 -0.002108046319335699 0.03615919128060341 0.01270278450101614 -0.007307744584977627 0.015493917278945446 -0.003770655021071434 -0.029297204688191414 0.002081997925415635 0.005310418549925089 -0.018323777243494987 -0.021719269454479218 0.044604696333408356 -0.013825981877744198 0.006344961933791637 -0.04157678782939911 0.2282925248146057 -0.015699811279773712 0.057187385857105255 -0.017219800502061844 -2.8398819267749786e-05 0.01185346394777298 -0.02217142842710018 -0.03991206735372543 -0.0021866585593670607 0.015518044121563435 -0.008443883620202541 -0.03310235217213631 -0.004634339362382889 0.028390513733029366 0.009271696209907532 0.00444162730127573 -0.019319457933306694 -0.02367911860346794 0.013152451254427433 -0.008401721715927124 0.015503795817494392 -0.003570884931832552 -0.030593592673540115 0.013643832877278328 0.019799187779426575 -0.008441410027444363 0.023182233795523643 -0.028203751891851425 -0.023271532729268074 -0.006832597777247429 -0.043757304549217224 -0.023105552420020103 0.010013381019234657 -0.0321318656206131 0.0007931382860988379 -0.014577423222362995 -0.010264583863317966 0.01565665379166603 0.03211841359734535 -0.020418893545866013 -0.0282577071338892 -0.007459363900125027 0.04346689209342003 -0.02320672757923603 -0.006174989975988865 0.013578984886407852 0.026349814608693123 0.014821084216237068 -0.0070645916275680065 -0.000780079048126936 0.0002690645051188767 -0.005710090510547161 0.03902162238955498 -0.011239217594265938 -0.004191068932414055 -0.024530718103051186 -0.04072332754731178
Fredrik Andersson,-0.008069319650530815 0.026420442387461662 0.04503799229860306 -0.0003998597676400095 -0.011990637518465519 0.0362856425344944 0.02148408070206642 0.009448149241507053 0.011742490343749523 0.014047042466700077 0.024273162707686424 -0.02690241113305092 0.00560687156394124 0.013784426264464855 -0.005506115034222603 0.004078750964254141 -0.00554334232583642 0.007610947825014591 -0.011997145600616932 -0.0005423824186436832 -0.003455136902630329 0.02879108488559723 0.011495612561702728 -0.011174585670232773 0.0008713186252862215 0.008387589827179909 0.00881353858858347 -0.006157095544040203 0.003908739425241947 -0.008593784645199776 0.02916966937482357 0.004405850078910589 0.0034380750730633736 0.004240889102220535 0.0023355912417173386 0.009738202206790447 0.023147940635681152 -0.008791651576757431 -0.003787559224292636 0.008462948724627495 -0.0022206322755664587 -0.003540866309776902 -0.011336283758282661 0.21542595326900482 -0.04412437602877617 0.06869659572839737 -0.012683036737143993 -0.015287644229829311 0.0036626614164561033 -0.020914390683174133 -0.030851231887936592 -0.011260953731834888 -0.011709444224834442 0.0034876170102506876 -0.013430575840175152 -0.006156427785754204 0.019649187102913857 0.003932476043701172 -0.002731124171987176 0.010792589746415615 -0.010154975578188896 0.014459545724093914 -0.0006483314791694283 -0.008523224852979183 0.0005456804065033793 0.0008185287588275969 0.017878536134958267 0.002870158990845084 0.004519280046224594 0.014528744854032993 0.012817670591175556 -0.005358087830245495 0.056966427713632584 0.006149543449282646 -0.04450236260890961 -0.02416144497692585 -0.01177024096250534 -0.031715601682662964 -0.013179131783545017 0.006644510198384523 0.0009041548473760486 0.009325751103460789 0.011877571232616901 0.0013286466710269451 -0.010873869061470032 -0.004281225614249706 0.0030236791353672743 -0.023888906463980675 0.010357578285038471 0.02294348180294037 -0.023035841062664986 -0.0068694776855409145 -0.03804044425487518 0.002595500787720084 -2.550780845922418e-05 -0.019382638856768608 0.03282034024596214 -0.0031034371349960566 0.004225973505526781 -0.01580057106912136
konstiga bloggen,-0.06274708360433578 0.04529254883527756 -0.012176696211099625 0.0020572408102452755 -0.014766689389944077 3.180174098815769e-05 0.0035535700153559446 -0.001575531787239015 0.0031222249381244183 0.016855478286743164 0.00013239096733741462 -0.008600406348705292 -0.03212978318333626 -0.018176227807998657 -0.033143799751996994 0.002729655709117651 -0.008112389594316483 0.015204660594463348 -0.006274302955716848 0.005558333359658718 0.004485991783440113 0.0031812533270567656 -0.018098434433341026 -0.029854904860258102 0.003990478813648224 -0.006991699803620577 0.0073640188202261925 -0.018570248037576675 0.005249743815511465 -0.0015176372835412621 0.025134285911917686 -0.015432584099471569 -0.00048639014130458236 0.019686970859766006 -0.0004435155133251101 0.01727358251810074 0.00610324228182435 0.02494346722960472 -0.0007459737826138735 0.013326598331332207 -0.015044474974274635 0.004773455206304789 -0.020198320969939232 0.1626884937286377 -0.02048802375793457 0.028988078236579895 -0.010422984138131142 -0.0247614998370409 0.0021305223926901817 -0.020545655861496925 0.0029324397910386324 -0.0146605484187603 -0.0043338993564248085 -0.01943374238908291 -0.0026715288404375315 0.019421089440584183 -0.0020613893866539 -0.004593240097165108 -0.003054030006751418 0.0011907803127542138 -0.019055409356951714 0.003727514762431383 -0.0023209822829812765 -0.013255195692181587 0.0159112811088562 -0.006424253340810537 -0.01849948801100254 -0.006995686329901218 0.009404463693499565 -0.0017198823625221848 0.016644205898046494 -0.02739335224032402 -0.0018395818769931793 -0.011854604817926884 -0.01185270119458437 0.004471143241971731 -0.005887569859623909 -0.0010552327148616314 -0.014627699740231037 -0.0026794015429913998 0.02566753886640072 -0.007725911680608988 0.0054337396286427975 -0.013085642829537392 0.016087105497717857 0.016372472047805786 -0.005208916496485472 0.004294986836612225 -0.010838398709893227 0.0031622222159057856 0.017634179443120956 -0.011359422467648983 -0.02681032568216324 0.02671174332499504 0.003580533666536212 0.019420860335230827 0.011875594034790993 -0.017094675451517105 -0.008104577660560608 -0.008408129215240479
RandomMakingMovies,0.0031380243599414825 0.04928899183869362 -0.01718190126121044 0.027620337903499603 -0.020339328795671463 -0.03765400871634483 -0.047477543354034424 0.011733541265130043 -0.008589189499616623 0.050864871591329575 -0.015144201926887035 -0.02726750448346138 -0.02634402923285961 1.1333730071783066e-05 -0.028230400756001472 -0.04148907586932182 -0.026539968326687813 0.010205014608800411 -0.04743757098913193 0.010805871337652206 -0.01853630319237709 0.01212782971560955 0.014460790902376175 -0.008639952167868614 0.005808243062347174 0.021026723086833954 0.009080593474209309 -0.01827092096209526 -0.007200941443443298 -0.00917360931634903 0.036226123571395874 -0.023279855027794838 0.007199935615062714 0.030089877545833588 -0.002064516767859459 -0.001436334103345871 0.010262216441333294 0.02241635136306286 -0.010358570143580437 -0.005959070287644863 -0.009042640216648579 0.0015474939718842506 -0.02149452455341816 0.15817204117774963 0.05120575800538063 0.04330286756157875 -0.00814376212656498 0.008769259788095951 -0.020650917664170265 -0.013113788329064846 -0.021665915846824646 -0.022357769310474396 0.0010574371553957462 0.008089961484074593 -0.014342695474624634 0.029121775180101395 0.03016533888876438 0.03856688365340233 0.012072324752807617 -0.013164348900318146 -0.03234345465898514 -0.008671252988278866 -0.020144056528806686 0.0002215118147432804 0.023327481001615524 -0.005970353726297617 -0.009038005024194717 0.0024386781733483076 0.0021488494239747524 -0.006119944155216217 0.007191530894488096 -0.02102305367588997 0.006093515083193779 -0.042196255177259445 -0.034945297986269 0.024445511400699615 -0.04460309073328972 0.008474723435938358 -0.018185462802648544 0.013603981584310532 -0.009451556950807571 -0.01592601090669632 -0.018936485052108765 0.0019107090774923563 -0.009645994752645493 0.00555723812431097 0.010439499281346798 -0.004080306738615036 -0.010342149995267391 -0.001440635183826089 0.021305738016963005 -0.010886816307902336 0.002128878142684698 0.03208806365728378 -0.023274272680282593 0.009951272048056126 0.032474420964717865 0.00644509494304657 -0.015735216438770294 -0.016897546127438545
Kristdemokraterna,-0.048053715378046036 0.01104639656841755 0.04922264441847801 -0.046299807727336884 -0.03366266191005707 0.007412209641188383 0.014420412480831146 -0.024706576019525528 -0.01676793396472931 -0.008035698905587196 -0.02714448980987072 0.013081607408821583 0.03950653225183487 -0.00023074110504239798 -0.001280592754483223 0.01141646970063448 0.011871199123561382 -0.02634311653673649 -0.04872659593820572 -0.010543973185122013 0.0305243618786335 0.039246682077646255 0.01869235560297966 0.01053093932569027 0.02088307775557041 -0.01373252272605896 0.02474590763449669 -0.00268068490549922 0.019277622923254967 0.018864165991544724 -0.019124602898955345 -0.01742422953248024 -0.01935993880033493 0.01797332987189293 -0.005127202719449997 0.012624930590391159 0.05076645687222481 0.029257114976644516 -0.006167327519506216 0.02252887934446335 0.030562015250325203 0.017687324434518814 -0.00863089133054018 0.1341734230518341 -0.0014234138652682304 0.009300329722464085 0.018778672441840172 -0.0008083847351372242 -0.007822413928806782 -0.014434912241995335 -0.007795668672770262 -0.003424691269174218 -0.013383384793996811 0.009450910612940788 -0.021220140159130096 0.006686980836093426 -0.01003403589129448 0.007165819406509399 -0.00976559892296791 -0.022717848420143127 0.002453726949170232 -0.02144167199730873 -0.011382144875824451 0.00549379363656044 -0.002819791901856661 0.000636393204331398 0.007056770846247673 -0.004793528467416763 0.005134697537869215 -0.004632029682397842 -0.02820419706404209 0.006394586525857449 0.014960413798689842 0.012925457209348679 -0.0031318985857069492 -0.0030849443282932043 -0.009250489994883537 0.007321532815694809 0.0009339754469692707 -0.030029309913516045 0.038376063108444214 -0.0017245172057300806 0.005090849939733744 -0.008619074709713459 0.0019213742343708873 0.022216059267520905 0.004249951336532831 0.013508039526641369 0.004307384602725506 0.026526743546128273 -0.018319765105843544 -0.008274204097688198 0.010708889923989773 -0.00529172457754612 -0.012394924648106098 0.0033296835608780384 0.007689701393246651 -0.03288941830396652 -0.023410119116306305 -0.014744211919605732
Johanna Berg,-0.040132928639650345 0.04681139066815376 0.004924505017697811 -0.02909228764474392 -0.01695789396762848 0.023419441655278206 -0.017431611195206642 0.017072884365916252 0.02754519321024418 -0.0003611613065004349 -0.006499932147562504 -0.036176200956106186 0.015856102108955383 -0.027437249198555946 0.007621179800480604 -0.01563510298728943 0.007290874607861042 0.013767549768090248 -0.0299802515655756 0.0016057040775194764 -0.00825995672494173 0.013898253440856934 0.009528128430247307 -0.04809493198990822 0.038248833268880844 0.03999502584338188 -0.01444158237427473 0.02449738420546055 0.028073472902178764 0.001891598105430603 0.011845987290143967 -0.04755005985498428 0.0139599135145545 0.025111740455031395 -0.004936613142490387 -0.004550508689135313 0.037399500608444214 -0.004550955258309841 -0.02590334787964821 0.004573814570903778 0.011286741122603416 0.017064400017261505 0.011130871251225471 0.3053838908672333 0.009176474995911121 0.05257277563214302 -0.046225760132074356 -0.0174796711653471 -0.009762415662407875 -0.016666991636157036 -0.024300286546349525 -0.031392764300107956 0.01578279584646225 0.023036669939756393 -0.016785362735390663 -0.010654033161699772 0.051936667412519455 0.01219212543219328 0.0032169141341000795 0.0018494718242436647 -0.006731443107128143 0.01095543522387743 0.010081742890179157 0.00044679120765067637 -0.014624851755797863 -0.03419528156518936 -0.008489303290843964 -0.01116561982780695 0.003196425037458539 0.019228342920541763 -0.07566027343273163 0.0023510500323027372 0.07220937311649323 0.026012644171714783 -0.06342378258705139 -0.037932880222797394 -0.014169243164360523 -0.007161626126617193 0.0023312808480113745 0.005185965448617935 0.014955117367208004 -0.03508836776018143 0.016356300562620163 0.0069144354201853275 -0.006498829927295446 0.0015937008429318666 -0.0067802369594573975 -0.005577644798904657 -0.0024731047451496124 0.00863566342741251 -0.023062432184815407 -0.018473053351044655 -0.048495858907699585 0.010160020552575588 0.038229696452617645 0.02984362281858921 0.04148164018988609 0.00037340130074881017 0.02139066904783249 -0.002537844469770789
Max tidigare discovery,-0.023614102974534035 -0.0037153379525989294 0.014525768347084522 0.0291442908346653 0.03357250615954399 -0.01305913645774126 -0.015854790806770325 -0.0058386134915053844 -0.009101579897105694 -0.005327544640749693 0.006156713701784611 -0.012266782112419605 -0.03403681144118309 0.006068139337003231 -0.008619657717645168 -0.033415839076042175 -0.026253683492541313 -0.029530853033065796 0.004103585612028837 0.007488025818020105 -0.01436257641762495 0.03205564245581627 -0.01632930152118206 -0.005257028620690107 -0.02242709882557392 0.00906433816999197 0.014549726620316505 -0.0013024144573137164 0.004145550075918436 0.007085863035172224 0.008410675451159477 0.015339541248977184 -0.00765607226639986 0.004177752882242203 0.006945156957954168 0.00410433067008853 0.022251972928643227 0.005668555852025747 -0.008479024283587933 0.020799288526177406 -0.010381324216723442 0.020500794053077698 -0.014028872363269329 0.10068333148956299 0.010936054401099682 0.04530453681945801 0.007879529148340225 0.014470291323959827 0.014430329203605652 -0.010963818989694118 -0.020447898656129837 0.017627917230129242 -0.012820884585380554 0.01727571152150631 -0.023232635110616684 0.004510343074798584 -0.01660235971212387 0.0048613823018968105 -0.010412605479359627 -0.006352524738758802 -0.001756861456669867 0.005373403429985046 -0.008941637352108955 -0.0069359950721263885 0.0021545407362282276 0.0017523439601063728 -0.007606805302202702 -0.01662169210612774 -0.006399597506970167 -0.0016415767604485154 0.018890855833888054 0.008244347758591175 -0.004349993076175451 -0.051122065633535385 -0.018713314086198807 0.013366267085075378 -0.008102684281766415 0.0028587100096046925 -0.01613529771566391 -0.003785574110224843 0.013370813801884651 0.001437637023627758 -0.00022961958893574774 0.015793241560459137 0.0006371401250362396 -0.021478386595845222 -0.004344040062278509 -0.006875967141240835 0.007392296101897955 0.024521613493561745 0.01203251164406538 -0.0015928400680422783 0.009317285381257534 -0.006718927063047886 -0.0029634612146764994 -0.002237854292616248 0.01821742206811905 0.004925956483930349 -0.01856783777475357 -0.006691701244562864
Sampev2 Ny,-0.031982358545064926 0.03552912920713425 0.017759529873728752 0.037929948419332504 0.009142445400357246 0.015816867351531982 -0.04006825014948845 -0.0044906288385391235 -0.0020688639488071203 -0.00939927063882351 0.0042150565423071384 -0.003914269153028727 -0.003165489761158824 -0.013246333226561546 -0.010381647385656834 -0.03802373260259628 -0.02152511104941368 0.02380179427564144 0.005000147968530655 0.012509559281170368 0.023071670904755592 0.007526051718741655 -0.013066072016954422 0.005231746006757021 0.03156031668186188 -0.007248811423778534 0.017575815320014954 0.005540014710277319 0.015536644496023655 -0.03944921866059303 0.0304593313485384 -0.00430217944085598 -0.003870805725455284 0.009249941445887089 -0.014866569079458714 -0.0072232927195727825 0.024468664079904556 0.010833581909537315 -0.014343773014843464 -0.00327901728451252 -0.0008537537651136518 0.0031750218477100134 -0.01902996003627777 0.10145489126443863 -0.026906976476311684 0.049040984362363815 0.014000628143548965 0.0032408046536147594 0.0009015804971568286 0.0057510449551045895 -0.014637710526585579 -0.020590392872691154 0.013882298022508621 -0.01609973981976509 -0.016718789935112 0.022508949041366577 0.02344515360891819 -0.0065321121364831924 0.004357601515948772 -0.007518055848777294 0.002669454552233219 -0.011070707812905312 -0.006983336992561817 0.018928855657577515 0.009160890243947506 0.0006956213619560003 -0.03299667313694954 -0.0010937212500721216 -0.026807773858308792 -0.002633166266605258 -0.0097908740863204 0.009174165315926075 0.023268040269613266 -0.0224064439535141 -0.019922684878110886 -0.012063958682119846 -0.03092564083635807 0.012936240993440151 0.022828876972198486 -0.03668772801756859 -0.007686178665608168 0.007186346687376499 0.014604253694415092 -0.0035518005024641752 -0.017839420586824417 0.012946892529726028 0.016015462577342987 -0.01202668808400631 0.014008698053658009 0.03301529958844185 0.0034021190367639065 0.005917532369494438 -0.006767076440155506 -0.0034885630011558533 0.007018356584012508 0.0024187457747757435 0.020797302946448326 0.007881353609263897 -0.007690358906984329 -0.013906317763030529
Bianca Ingrosso,-0.030827898532152176 0.07903780788183212 -0.00775254238396883 0.013900386169552803 0.004422790836542845 0.03927420452237129 -0.01196510810405016 0.0193821731954813 -0.0023479105439037085 -0.0002998721320182085 -0.007349399849772453 -0.059921156615018845 0.02351486310362816 -0.058751437813043594 -0.008028751239180565 -0.010636766441166401 -0.024346714839339256 -0.009406807832419872 -0.0017805094830691814 0.005619550123810768 -0.015527209267020226 -0.013511165045201778 -0.013432315550744534 0.01340310089290142 0.0420910120010376 -0.03581419587135315 -0.011228843592107296 0.017047246918082237 0.023149728775024414 -0.026491079479455948 0.03804249316453934 -0.01616550050675869 0.006984109058976173 0.020039275288581848 -0.01840014010667801 0.021414265036582947 0.0028942979406565428 0.04392387345433235 -0.02019076980650425 0.025662394240498543 0.0059106191620230675 -0.02063000202178955 0.0038155571091920137 0.1780182421207428 -0.02655007876455784 0.0671355351805687 0.003590512787923217 0.0006195033784024417 0.023523973301053047 0.0030561378225684166 0.022039849311113358 -0.01366492360830307 0.009545478038489819 -0.015797549858689308 0.013895614072680473 0.009859931655228138 0.034082528203725815 0.031942375004291534 -0.004707712680101395 -0.0027808218728750944 -0.011273153126239777 0.05287338048219681 -0.014704960398375988 -0.0011015502968803048 0.018785113468766212 0.00210273964330554 0.00731826713308692 -0.023348623886704445 0.021589748561382294 0.024110212922096252 -0.03182055428624153 -0.03033001534640789 0.009895346127450466 -0.03341607004404068 0.040762580931186676 -0.002784113632515073 -0.02728845179080963 -0.014932668767869473 -0.02383490279316902 -0.0038443030789494514 0.013107316568493843 -0.01913842000067234 0.015085794031620026 4.6663561079185456e-05 -0.007945381104946136 -0.014663388952612877 0.013696023263037205 0.022882945835590363 0.012453325092792511 0.004336592275649309 -0.01716192439198494 0.0065233432687819 -0.02685954049229622 -0.006113299634307623 -0.005351310595870018 -0.024171903729438782 0.0500556118786335 -0.00244427053257823 -0.016051197424530983 -0.04392501339316368
ICA,-0.18902122974395752 0.24018633365631104 0.32709020376205444 -0.11298677325248718 -0.2164217233657837 -0.14463646709918976 0.1868007928133011 0.1832246482372284 -0.04868403449654579 -0.3083648681640625 0.11289206147193909 -0.36102527379989624 0.106233611702919 -0.14231550693511963 -0.004053652286529541 0.2239616960287094 -0.0011754445731639862 -0.16950923204421997 -0.33494770526885986 -0.1582365781068802 0.35773271322250366 -0.10481914132833481 -0.12147966027259827 -0.09240493178367615 -0.11247339099645615 -0.11163470149040222 0.025205373764038086 -0.028924426063895226 0.057198964059352875 0.03520753234624863 0.10359057039022446 -0.2535828649997711 -0.016431480646133423 -0.09810324013233185 0.16235390305519104 -0.14716151356697083 -0.09580634534358978 0.07408592849969864 -0.017905160784721375 -0.20707279443740845 -0.200051948428154 -0.08105187863111496 0.3375794291496277 0.6720269322395325 0.02784115821123123 0.051519542932510376 0.20974589884281158 -0.01455976814031601 -0.06978429108858109 -0.24136383831501007 -0.0019292868673801422 -8.63000750541687e-05 -0.12305711209774017 0.03989177197217941 0.020313989371061325 0.32589346170425415 0.0769653469324112 0.0811387151479721 -0.12049698084592819 -0.05744154006242752 -0.12812036275863647 0.03057800978422165 -0.22831127047538757 0.11703615635633469 -0.09991170465946198 0.020720580592751503 -0.13716517388820648 0.203409343957901 -0.26276859641075134 0.1927809715270996 -0.052255455404520035 0.01571389101445675 0.058007970452308655 -0.06037883460521698 -0.059507448226213455 0.0006301850080490112 -0.013105884194374084 0.020960569381713867 -0.029526935890316963 -0.27918052673339844 0.07054966688156128 0.04984158277511597 0.028817929327487946 0.17396432161331177 0.003279108554124832 -0.15132156014442444 0.15303753316402435 -0.07451598346233368 0.1454818844795227 -0.1444351077079773 0.089939184486866 0.1218530535697937 -0.042937811464071274 -0.015440095216035843 -0.03875856101512909 -0.08156342059373856 0.04409922659397125 -0.04161173105239868 -0.06427039951086044 -0.2438552975654602
Sveriges Roligaste Videor,-0.0315340980887413 -0.0038773987907916307 -0.01442532055079937 0.004073569551110268 -0.001040130271576345 -0.01067561935633421 0.008150053210556507 -0.005657394882291555 -0.010887513868510723 0.03103109821677208 -0.021696912124753 -0.019399790093302727 -0.004104632884263992 -0.040166016668081284 -0.01741778291761875 0.013462218455970287 -0.01246075052767992 0.008588917553424835 -0.03482719510793686 0.013025720603764057 -0.010890360921621323 -0.006576933432370424 -0.00026664722827263176 -0.011004462838172913 -0.008342130109667778 -0.00965983234345913 0.0011918917298316956 -0.009159459732472897 -0.002152848755940795 0.010671489872038364 0.012939429841935635 0.01273780595511198 -0.00994270108640194 0.03819292411208153 0.0038471410516649485 0.014374274760484695 0.006299126427620649 0.011252565309405327 0.0008934826473705471 0.017324935644865036 -0.007882322184741497 0.019155705347657204 -0.011329548433423042 0.12658992409706116 0.057579539716243744 0.0462147481739521 -0.018548740074038506 0.006555268540978432 -0.00168857432436198 -0.0018237136537209153 -0.01342909038066864 -0.016551820561289787 0.015416119247674942 0.007593704387545586 -0.0013171392492949963 0.01193017978221178 0.008885184302926064 -0.0035597537644207478 0.0006300049717538059 -0.0012779043754562736 0.0003493803960736841 -0.001731880009174347 -0.018180001527071 -0.009503926150500774 0.002460329094901681 -0.008742877282202244 0.017258720472455025 0.005507506895810366 -0.01662200503051281 0.005963390227407217 0.00650622695684433 -0.009691471233963966 -0.005398434121161699 -0.03339467570185661 -0.0356895849108696 -0.016772307455539703 -0.01476965844631195 -0.012608746066689491 0.0006728308508172631 0.00804486870765686 0.008679823949933052 -0.0017557183746248484 0.005653175991028547 -0.010007566772401333 -0.010289549827575684 -0.008538655936717987 0.005406136624515057 0.005136427469551563 0.005281494464725256 0.00963276345282793 0.021623022854328156 -0.017195995897054672 -0.008074290119111538 0.0141205545514822 -0.011470424011349678 0.016393547877669334 0.001655253698118031 -0.011489523574709892 -0.0008851181482896209 -0.01595979370176792
Diyari,-0.03041207045316696 0.1142222061753273 -0.016403276473283768 0.010412093251943588 0.08406218886375427 -0.006667575798928738 -0.04555901139974594 -0.05253062769770622 0.061325803399086 -0.08099736273288727 -0.050952233374118805 -0.04852382838726044 -0.036121100187301636 -0.005151938647031784 0.007127363234758377 -0.029259251430630684 0.08631947636604309 0.006951811723411083 -0.0344628244638443 0.003972295671701431 0.014957524836063385 0.02586670033633709 -0.006912726443260908 -0.024515341967344284 -0.019671643152832985 0.034330300986766815 0.004942458122968674 -0.010171773843467236 -0.013163156807422638 -0.07174219936132431 0.035418540239334106 0.007204375229775906 -0.019719691947102547 -0.0014060232788324356 -0.014051055535674095 -0.00971332285553217 0.01724616065621376 -0.04232526943087578 -0.058588817715644836 -0.057754695415496826 0.04118660092353821 -0.02531081810593605 -0.0001853685826063156 0.3209223449230194 -0.03847746551036835 0.11329934000968933 0.06592617928981781 0.0030084941536188126 0.07879643142223358 -0.046109285205602646 0.07360571622848511 -0.01842663437128067 -0.004792774096131325 0.013968847692012787 -0.012359810061752796 0.023047298192977905 0.04630293324589729 0.020172785967588425 0.0038722194731235504 -0.04638461023569107 -0.04970421642065048 -0.00257186871021986 0.001440604217350483 -0.012302273884415627 0.05599971115589142 0.012506828643381596 -0.00047211721539497375 -0.020514026284217834 -0.042709484696388245 0.03824024647474289 -0.0478266142308712 -0.028497569262981415 0.09660863131284714 -0.026753975078463554 0.0026076342910528183 -0.0026184692978858948 -0.0879768431186676 0.020386051386594772 -0.02250075712800026 -0.023882824927568436 0.003617575392127037 -0.019245488569140434 0.03153767064213753 -0.05250071361660957 -0.054443202912807465 0.010951155796647072 0.0007791551761329174 0.046796467155218124 -0.017606772482395172 0.06002407521009445 -0.024145541712641716 -0.033765971660614014 0.004551980644464493 0.03098638355731964 -0.026161624118685722 0.002090776339173317 0.038727834820747375 -0.011154009029269218 -0.026943866163492203 -0.05749404430389404
Jonas Fagerström,-0.033303603529930115 0.03453344106674194 0.04012557491660118 -0.017748534679412842 -0.02489195019006729 0.03512435778975487 -0.0005591200897470117 0.026307811960577965 -0.0024168668314814568 0.03738096356391907 0.008775800466537476 -0.03547674044966698 0.02916891872882843 -0.0033486473839730024 0.009149928577244282 -0.009254309348762035 0.004663301631808281 0.014907333999872208 -0.026401156559586525 -0.009460553526878357 0.013018060475587845 0.05433131009340286 -0.00408856850117445 -0.010707163251936436 -0.0034861406311392784 0.010754813440144062 -0.011776173487305641 -0.0017293926794081926 -0.00032059982186183333 0.00721097644418478 0.009278316050767899 -0.028971504420042038 0.00971074029803276 0.01421871967613697 0.0027246035169810057 0.00438306387513876 0.02125348523259163 0.0028113899752497673 0.013221433386206627 -0.012873644940555096 0.008967537432909012 -0.004300990607589483 -0.006380077917128801 0.2318839728832245 -0.024426313117146492 0.05188899487257004 -0.03338819742202759 -0.02281482145190239 -0.024068333208560944 -0.004824442323297262 -0.014355362392961979 -0.01276314351707697 -0.0057711293920874596 0.002598940394818783 0.004395458847284317 -0.015230576507747173 0.006280285771936178 -0.007587420288473368 -0.007627137936651707 -0.00834941677749157 0.0013624199200421572 0.027301903814077377 0.00498818838968873 -0.009831626899540424 0.009262831881642342 -0.009368717670440674 0.004182457458227873 0.0026578980032354593 -0.021364187821745872 0.009236198849976063 -0.022583888843655586 -0.0010073387529700994 0.06168657913804054 0.035724010318517685 -0.03468999266624451 -0.0419032983481884 -0.007267555221915245 -0.035611387342214584 -0.005118837580084801 0.017208870500326157 -0.00043659552466124296 -0.004732831846922636 -0.010256273671984673 0.0019810465164482594 -0.016428878530859947 0.0011120117269456387 -0.0027936322148889303 -0.013618657365441322 -0.0022669602185487747 0.01779930852353573 -0.03988706320524216 0.007402736693620682 -0.029963750392198563 -0.005578187294304371 0.0010804225457832217 -0.009576697833836079 0.041600823402404785 -0.0058374470099806786 0.008861161768436432 -0.018946750089526176
Nicks Burek Report,0.012667886912822723 0.04481787607073784 0.026473142206668854 -0.006228734273463488 -0.009003033861517906 0.014989612624049187 -0.010978680104017258 0.011354677379131317 0.001916510984301567 0.017083723098039627 -0.00316285016015172 -0.01619591936469078 0.006154023110866547 0.006376952864229679 0.017249953001737595 -0.016040999442338943 0.007004615385085344 -0.01586225815117359 -0.008237859234213829 0.005226899404078722 -0.00593178253620863 0.019126832485198975 0.00883552711457014 -0.019553573802113533 -0.01150142028927803 -0.014509891159832478 -0.0011173243401572108 0.0033080417197197676 0.020793819800019264 0.006033489480614662 0.01908961869776249 0.003597525879740715 0.01584218069911003 0.012726870365440845 -0.00028939731419086456 -0.005449158139526844 0.01281337533146143 0.015384605154395103 -0.009771144948899746 0.003676236141473055 0.0020363102667033672 -0.0068185823038220406 0.001479834783822298 0.1756594479084015 -0.004811146296560764 0.021897166967391968 -0.025342626497149467 0.004896973259747028 -0.004172219894826412 -0.013808570802211761 -0.005162043031305075 -0.025369932875037193 0.003992863465100527 -0.014439697377383709 -0.011133077554404736 -0.0011788851115852594 0.0041667683981359005 -0.0027128092478960752 0.0005868300795555115 0.0008278777240775526 -0.031789716333150864 0.0044686938636004925 -0.005222477484494448 -0.009806662797927856 -0.006662932690232992 0.0009041798766702414 0.015247178263962269 0.01585998386144638 -0.005825174041092396 0.010963409207761288 -0.010892411693930626 -0.003964026924222708 0.014964978210628033 -0.02188119851052761 -0.04723948985338211 -0.0022814604453742504 -0.02482960745692253 -0.001668012817390263 0.004448119550943375 -0.009165389463305473 -0.007199207320809364 -0.003825632156804204 0.009561708196997643 -0.018480749800801277 -0.0015567676164209843 0.00868962425738573 -0.008071419782936573 0.00012241234071552753 0.0016736253164708614 0.019593162462115288 0.014702845364809036 -0.004248400218784809 -0.01935325190424919 -0.0025332551449537277 0.003924764692783356 0.006775976624339819 0.009241974912583828 0.004488455131649971 -0.009376315400004387 -0.029486464336514473
Jesper Nordberg,-0.016615305095911026 0.047796573489904404 0.03471419960260391 0.005102446768432856 -0.0017290441319346428 0.025640370324254036 0.005227695684880018 0.016666516661643982 0.01277278270572424 0.02164396271109581 0.004765302408486605 -0.019673803821206093 0.009529360570013523 0.007190072443336248 -0.004705586936324835 0.007314400281757116 -0.007353141438215971 0.025304066017270088 -0.011120072565972805 0.007763419765979052 -0.0086295697838068 0.019640054553747177 -0.00033200575853697956 -0.02223859913647175 0.0031662744004279375 0.01315116323530674 -0.005648311693221331 0.005259932484477758 0.02936200052499771 -0.0005565962055698037 0.030089812353253365 -0.007466350216418505 0.010238297283649445 0.01991228759288788 0.03285946324467659 -0.011702855117619038 0.0375138521194458 0.00431178230792284 -0.0036386095453053713 0.0005827718414366245 0.003337525064125657 0.0005945850280113518 0.01699627935886383 0.20600993931293488 0.016538413241505623 0.0707072913646698 -0.011809593997895718 -0.02744976431131363 -0.015383532270789146 -0.02925472892820835 -0.01718328148126602 -0.017695432528853416 -0.0023446267005056143 -0.012954219244420528 0.003929158207029104 -0.03076106682419777 0.014578050933778286 -0.02946220338344574 -0.008377942256629467 -0.02759821154177189 -0.0020396788604557514 0.017140451818704605 -0.006788138300180435 -0.004772390704602003 0.014636552892625332 0.020358651876449585 0.011196430772542953 -0.014191562309861183 -0.011476166546344757 0.0003025726764462888 0.008376051671802998 -0.01337270624935627 0.0491325706243515 0.010194345377385616 -0.038280922919511795 -0.019247224554419518 0.004996514413505793 -0.012271324172616005 0.0028036886360496283 0.0035671780351549387 9.17868601391092e-05 0.015189393423497677 0.007897937670350075 -0.021629422903060913 0.011772922240197659 -0.008879517205059528 -0.021132715046405792 0.0072154877707362175 0.002328691305592656 0.028819136321544647 -0.02572384849190712 -0.023178385570645332 -0.03344140946865082 0.0017229760996997356 0.016829723492264748 0.0039039859548211098 0.029489263892173767 -0.020909905433654785 0.01856323890388012 -0.006392223760485649
Wonderboi,-0.05137227848172188 0.07040876150131226 -0.009525899775326252 0.04883567616343498 0.02956889569759369 0.008884596638381481 -0.023092901334166527 0.023523978888988495 -0.0045738318003714085 0.044546619057655334 -0.022288786247372627 -0.06003826856613159 -0.017516307532787323 -0.03313354775309563 0.017882714048027992 -0.0352695994079113 -0.0036360532976686954 -0.02989419735968113 -0.03739035874605179 0.022347964346408844 -0.024398144334554672 0.04354919120669365 0.01303018443286419 0.04954494908452034 0.014273461885750294 -0.015728581696748734 0.02245289273560047 -0.004346979316323996 0.009764334186911583 -0.0051427013240754604 0.012496708892285824 0.007205234374850988 -0.022056588903069496 0.02941569872200489 -0.003959061577916145 0.02261536940932274 0.016007309779524803 0.009561169892549515 -0.036947425454854965 -0.015237165614962578 0.013979618437588215 -0.012334437109529972 0.012010904960334301 0.1791677176952362 0.020140206441283226 0.056791793555021286 0.027623742818832397 -0.007607982028275728 0.011661233380436897 -0.01963893137872219 0.022641988471150398 -0.039556290954351425 -0.026661250740289688 0.005297302268445492 -0.03138844668865204 0.018750537186861038 0.002508273348212242 0.014410199597477913 0.03215116634964943 -0.009678508155047894 0.025469042360782623 0.0037696100771427155 0.028721343725919724 -0.029716260731220245 0.011858281679451466 0.016978111118078232 0.0186370387673378 0.010372551158070564 -0.003008822910487652 -0.014482947066426277 -0.03210390731692314 0.041064128279685974 0.03592865169048309 -0.10091973096132278 -0.01278748456388712 -0.0037376570980995893 -0.03283887356519699 0.012058410793542862 -0.009770927019417286 -0.0159178227186203 -0.01577267423272133 -0.015148074366152287 0.019225409254431725 -0.011222134344279766 -0.015610834583640099 -0.0120109673589468 -0.002718356903642416 -0.016639864072203636 -0.020472267642617226 0.021500835195183754 -0.01490083523094654 0.007645836099982262 -0.020184507593512535 0.009884988889098167 -0.06776455044746399 -0.03300026059150696 0.009837523102760315 -0.014313360676169395 -0.0415574312210083 -0.043814972043037415
Winsent Thunholm Wikman,-0.011362229473888874 0.05222636088728905 0.026168540120124817 -0.01198702771216631 -0.02690570242702961 0.02666458673775196 -0.011919449083507061 -0.018962733447551727 0.032881494611501694 0.029147988185286522 0.03171191364526749 -0.012694203294813633 -0.002250230871140957 -0.014510732144117355 0.014388092793524265 -0.0010339646833017468 -0.001554172020405531 0.0020435687620192766 -0.011447991244494915 0.01809283345937729 -0.014217440970242023 0.01999405212700367 -0.0019242969574406743 0.009863149374723434 0.01751830242574215 0.03170851990580559 -0.004063857719302177 0.005551855079829693 0.003167583607137203 -0.018552498891949654 0.016452321782708168 0.01084931194782257 -0.0010422301711514592 0.005910821724683046 -0.005367644596844912 0.028234731405973434 0.019474312663078308 -0.008302846923470497 -0.0073981741443276405 -0.0027581274043768644 -0.017595956102013588 -0.005826099775731564 -0.01911088638007641 0.16070500016212463 -0.03153369575738907 0.0544852614402771 0.014698410406708717 -0.03391505032777786 -0.00453154556453228 -0.01842792145907879 -0.04000487178564072 0.0033065788447856903 0.0033025406301021576 -0.011783823370933533 -0.004765910562127829 -0.006695233751088381 0.022086767479777336 0.018677785992622375 0.007568492088466883 -0.009051046334207058 0.008943069726228714 0.014490309171378613 0.009316845797002316 0.004920906852930784 0.01001424714922905 0.006035143509507179 0.03110976703464985 0.008852201513946056 -0.016056180000305176 0.003881207900121808 0.02173466607928276 0.000686024664901197 0.02970750816166401 -0.006866434123367071 -0.003408030839636922 0.0002688041713554412 -0.036505840718746185 -0.014112979173660278 -0.01610112562775612 -0.002798633184283972 -0.001337071298621595 0.008557140827178955 0.007427269127219915 -0.005504930391907692 -0.007389967795461416 -0.021368758752942085 -0.008916362188756466 -0.00925652775913477 0.006151305977255106 0.03001226671040058 -0.03710680827498436 -0.012753442861139774 -0.003199964761734009 0.012712936848402023 0.0197797529399395 -0.005338998045772314 0.01751050166785717 -0.011455811560153961 0.010204472579061985 -0.004403435159474611
Anis Don Demina,-0.03054959326982498 0.12279468774795532 0.021304719150066376 0.023015789687633514 0.027386512607336044 -0.01841040328145027 -0.06317070871591568 0.024797316640615463 0.007643792778253555 0.0047654383815824986 0.015031760558485985 -0.04010007157921791 -0.048377878963947296 -0.027769895270466805 0.005022712983191013 -0.01606961153447628 -0.006619607098400593 0.007631842978298664 -0.027372177690267563 -0.026392048224806786 -0.010492973029613495 0.019794300198554993 0.007060382515192032 -0.009943420998752117 0.0450659915804863 -0.0014701102627441287 0.029308907687664032 -0.01500281784683466 0.015575206838548183 -0.0026607108302414417 0.04839412122964859 0.0023095025680959225 0.0041663432493805885 0.03142165020108223 -0.06279610842466354 -0.017090382054448128 0.0014963488793000579 -0.009867736138403416 -0.00830589048564434 -0.019166866317391396 -0.005728588905185461 -8.114499360090122e-05 0.004789687693119049 0.35852861404418945 0.007111170329153538 0.08626118302345276 -0.0017175233224406838 -0.004842996131628752 0.030025029554963112 -0.027559256181120872 0.0047905584797263145 -0.001690979697741568 0.023293014615774155 0.0013355991104617715 -0.018711566925048828 0.0015040006255730987 0.030222192406654358 0.02600371651351452 -0.0009170527337118983 -0.02009923756122589 -0.024394674226641655 -0.011514276266098022 0.002589284209534526 -0.022521816194057465 0.006334487348794937 -0.024611011147499084 0.01490927953273058 -0.03973875567317009 -0.004076553508639336 0.004615707788616419 -0.039365559816360474 -0.01903006248176098 0.029024900868535042 -0.05824718624353409 -0.05185164883732796 -0.019275721162557602 -0.032097864896059036 -0.0030574160628020763 0.0005560761201195419 -0.0154406214132905 0.0015883265295997262 0.01892554759979248 0.02308979444205761 0.0028341917786747217 -0.03595523163676262 -0.013579362072050571 -0.025404557585716248 0.0017901132814586163 0.035259511321783066 0.026071177795529366 1.992457328015007e-06 -0.010127680376172066 -0.019245490431785583 0.004369820933789015 0.007336736191064119 0.018521420657634735 0.017914284020662308 -0.0016711036441847682 -0.01408617477864027 -0.03828337416052818
Sam Pettersson,-0.0026670123916119337 0.028537284582853317 0.02970736101269722 0.01995057612657547 -0.00645283330231905 0.018097570165991783 -0.0004946844419464469 -0.004313468933105469 0.006871973630040884 0.009120948612689972 0.0193032156676054 -0.023801028728485107 0.005391811951994896 0.005953647196292877 -0.021147720515727997 0.031490765511989594 0.004353840835392475 0.009440837427973747 -0.0005411654710769653 -0.0029090363532304764 0.007886777631938457 0.028264690190553665 -0.014717093668878078 -0.0002929844777099788 0.016701877117156982 -0.015828749164938927 0.019401175901293755 -0.021938573569059372 0.010366666130721569 -0.021272167563438416 0.007771999575197697 0.016777608543634415 0.010093273594975471 0.0012627438409253955 0.015226799063384533 0.015589321963489056 0.0007546190172433853 -0.00994698703289032 0.003587127197533846 0.009359060786664486 0.0051918900571763515 0.008545973338186741 -0.011197557672858238 0.12319923937320709 -0.05266852676868439 0.06482939422130585 0.01471078023314476 -0.017347076907753944 0.002729846863076091 0.0007842164486646652 -0.028328537940979004 -0.008883043192327023 0.013731738552451134 -0.005661509465426207 -0.003393613500520587 -0.005084617994725704 0.007730121724307537 0.012106790207326412 -0.012561202049255371 0.00173696200363338 0.0016872193664312363 0.011539340019226074 -0.0024015968665480614 -0.006186341401189566 -0.009246723726391792 0.018674293532967567 0.024433176964521408 -0.002663999330252409 0.001381961046718061 0.0166446715593338 0.02776171825826168 -0.005346586927771568 0.013574074022471905 0.0024409154430031776 -0.022316042333841324 -0.017925910651683807 -0.036619335412979126 -0.023354804143309593 -0.018038224428892136 0.02649853006005287 -0.02296832762658596 0.008373254910111427 -0.018371015787124634 -0.002464529825374484 -0.013574963435530663 -0.013671393506228924 0.01659286767244339 -0.014828883111476898 -0.005025794263929129 0.01181744784116745 -0.03315729647874832 -0.020610135048627853 -0.004354066215455532 0.02356043830513954 0.003207933157682419 -0.0021677270997315645 0.008930688723921776 -0.00045920320553705096 -0.017032964155077934 -0.005010428838431835
Miljöpartiet de gröna,-0.014611677266657352 0.024256637319922447 0.030589718371629715 0.004120335914194584 0.01995740458369255 0.015398100949823856 0.008214158937335014 0.005136460531502962 0.013192988000810146 -0.007833394221961498 -0.009252145886421204 0.006225035060197115 0.003569521475583315 -0.01464445237070322 -0.0040744817815721035 0.009036076255142689 -0.04291843995451927 -0.005002802237868309 -0.02386154793202877 -0.004317948129028082 0.007073490880429745 0.010423136875033379 0.018534865230321884 -0.0030654193833470345 0.0024080530274659395 -0.004390390124171972 0.004007180221378803 -4.5138754103390966e-06 0.0076475306414067745 -0.0013828141381964087 -0.0055503505282104015 0.0006227653939276934 -0.014183014631271362 0.010383925400674343 -0.010567089542746544 -0.0002099557896144688 0.0026903145480901003 0.006423660088330507 -0.009470161981880665 -0.005871891509741545 0.012497147545218468 -0.004418358206748962 0.007235507480800152 0.14354845881462097 0.0015360250836238265 0.03671673685312271 0.02315407432615757 0.022726528346538544 -0.0023835094179958105 -0.010231162421405315 0.00789853185415268 -0.02225644327700138 -0.015712879598140717 -0.0008699564496055245 -0.007289933506399393 0.004649300593882799 0.010257069952785969 0.011570552363991737 -0.005177395883947611 -0.00281108682975173 -0.010497448965907097 -0.021736690774559975 -0.0080368397757411 -0.019299622625112534 0.01430649682879448 0.0002991841465700418 0.01831713132560253 0.004856644663959742 0.005413809325546026 0.01251384150236845 -0.003974635619670153 -0.016263576224446297 0.00228159804828465 -0.03687222674489021 -0.04135796055197716 0.01820894330739975 -0.04160290211439133 0.01152030099183321 0.005153277423232794 -0.004899139981716871 0.010614102706313133 -0.008989192545413971 -0.0010767622152343392 -0.008434385061264038 -0.00270129949785769 -0.007105404045432806 -0.014462598599493504 -0.001056860899552703 0.015727244317531586 0.016715483739972115 0.00488292658701539 -0.020376762375235558 0.02190496399998665 -0.016670115292072296 -0.022189756855368614 0.012690186500549316 0.018243156373500824 -0.01139755453914404 -0.01564500294625759 -0.002276688115671277
Ben Mitkus,0.003994598984718323 0.048967842012643814 -0.010743007063865662 0.06301543861627579 0.01796676218509674 0.02260006219148636 -0.005398406647145748 -0.027866516262292862 0.028934406116604805 -0.023440081626176834 0.020866144448518753 -0.03631531074643135 -0.00921000074595213 -0.022555258125066757 -0.015268879011273384 0.011096342466771603 -0.053507000207901 0.01140046026557684 0.007811152841895819 -0.0116166602820158 -0.009234238415956497 0.022258328273892403 0.01164419949054718 0.025140414014458656 -0.0009791278280317783 -0.005518355406820774 -0.028234057128429413 -0.0007447073003277183 0.005346548277884722 -0.004944395273923874 0.022986114025115967 0.01766548678278923 0.0021011848002672195 -0.02659287303686142 0.00985199399292469 0.006785663776099682 0.009485678747296333 0.03401750698685646 -0.01641952246427536 -0.005381387192755938 -0.03713854402303696 0.01607152447104454 -0.014522298239171505 0.18362940847873688 -0.03787747770547867 0.04933846741914749 0.011630004271864891 0.005872421432286501 0.026657944545149803 0.03922158479690552 -0.031387943774461746 0.008370106108486652 -0.03752774000167847 -0.030020294710993767 -0.016760673373937607 -0.011903516948223114 0.04722985625267029 0.015424848534166813 0.012399102561175823 -0.02648801915347576 -0.010837361216545105 0.007377387955784798 -0.00033589795930311084 -0.01272660307586193 -0.01348688080906868 0.006520241033285856 0.003858676180243492 -0.0008078012615442276 -0.01886509358882904 0.00452738581225276 0.02951357699930668 0.00581382354721427 0.026514751836657524 -0.006673828233033419 -0.007753821089863777 0.011007215827703476 -0.0037554139271378517 -0.003443887922912836 -0.004726257640868425 -0.024136215448379517 0.003962737042456865 -0.019667955115437508 0.02506037801504135 -0.00016319192945957184 -0.017819201573729515 -0.005801755469292402 0.0033992892131209373 -0.011170802637934685 -0.01609703153371811 0.0008150176145136356 -0.0337538942694664 -0.03430367261171341 -0.003396681509912014 0.024828897789120674 0.010523905046284199 0.0265948586165905 0.007870991714298725 0.014461265876889229 -0.004274559672921896 -0.010374583303928375
Ribecka,-0.01561614591628313 0.1039242297410965 0.0619303397834301 -0.02386600337922573 0.03489610552787781 0.08708492666482925 0.0034209832083433867 0.05378161743283272 0.03172909840941429 0.03137395903468132 -0.029202861711382866 4.4680946302833036e-05 0.01777435839176178 0.009189683943986893 0.0030332840979099274 -0.030510444194078445 -0.008433754555881023 -0.002304647583514452 -0.04288676381111145 0.016371121630072594 -0.015115320682525635 0.02647281251847744 -0.015090018510818481 -0.0376887172460556 0.031669069081544876 -0.00799816008657217 -0.03354030102491379 0.011164501309394836 0.0280077513307333 -0.029121652245521545 0.03075220063328743 0.0060721798799932 -0.03520330414175987 0.02855096198618412 0.010158303193747997 0.019070861861109734 0.013836155645549297 0.011297179386019707 -0.024183349683880806 -0.0008887425065040588 0.014555320143699646 -0.015499331057071686 0.022404490038752556 0.3415069580078125 -0.037780679762363434 0.09151306003332138 -0.022046590223908424 0.008632222190499306 0.02901884913444519 -0.0015946821076795459 -0.014907161705195904 -0.042997345328330994 0.008815758861601353 -0.005413184408098459 -0.02646351233124733 -0.0372730977833271 0.046603213995695114 0.021461589261889458 -0.022196907550096512 -0.0131043316796422 -0.044938649982213974 0.04648984223604202 -0.019831499084830284 0.002986570820212364 0.00017695873975753784 -0.0011344231897965074 0.023436415940523148 0.015836983919143677 -0.008929030038416386 -0.023078640922904015 -0.07316737622022629 0.0064191981218755245 0.10447057336568832 0.006613916251808405 -0.04308076202869415 0.0008224606863223016 -0.02769293822348118 -0.016661882400512695 0.045705441385507584 0.020138030871748924 0.04394916445016861 -0.004673980642110109 -0.01408330537378788 0.00032625944004394114 -0.024465201422572136 0.031496670097112656 0.030964931473135948 -0.003244063351303339 -0.008243179880082607 0.0721316710114479 -0.013674718327820301 0.02632831409573555 0.0008598268032073975 -0.041592445224523544 0.023303266614675522 -0.03712084889411926 0.055814482271671295 -0.025618771091103554 0.00513710780069232 0.023436790332198143
Viktor Klemming,-0.07231603562831879 0.03785783424973488 0.06137436255812645 0.02757897786796093 0.004922935273498297 0.03672207519412041 -0.03265714645385742 0.016046246513724327 0.004489926155656576 0.03823372721672058 -0.012889436446130276 -0.06024402007460594 -0.01973186805844307 -0.029483046382665634 0.010498861782252789 -0.013758350163698196 -0.020878447219729424 -0.00046044131158851087 -0.01061743963509798 -0.02216395176947117 -0.027965741232037544 -0.01398460753262043 0.006095207761973143 0.0008210969972424209 0.028762804344296455 0.04034542664885521 -0.021918080747127533 0.02295880950987339 0.03952920064330101 -0.0012466091429814696 0.050839103758335114 -0.02488848939538002 -0.046509433537721634 0.05425754934549332 -0.0037356026004999876 0.03662111982703209 0.011990517377853394 -0.02379716746509075 -0.00970617774873972 0.007078188005834818 -0.020907407626509666 -0.01982688717544079 -0.0036263582296669483 0.27242785692214966 0.05773931369185448 0.09496241807937622 -0.014613612554967403 -0.0105024054646492 -0.00543178291991353 -0.02090066485106945 -0.021001160144805908 -0.025882776826620102 -0.0034630419686436653 0.04476192966103554 -0.00696124043315649 0.018465891480445862 0.023836899548768997 0.029225332662463188 0.007248174399137497 -0.034501053392887115 0.006050427444279194 0.009974183514714241 0.03681765869259834 -0.027871349826455116 0.03798704221844673 -0.0017100722761824727 -0.015856772661209106 0.011228864081203938 -0.0017385813407599926 -0.004717310890555382 0.01306029874831438 0.0038914137985557318 0.07102660089731216 0.002129735890775919 -0.06557275354862213 -0.00019555138715077192 0.010885879397392273 0.013747313991189003 -0.012105358764529228 0.005415211897343397 -0.0017725927755236626 -0.02502046711742878 0.03505841642618179 0.002094427589327097 -0.0032236280385404825 0.020229268819093704 -0.00754220224916935 0.017608387395739555 0.005329756531864405 0.032526466995477676 -0.043545834720134735 0.01877194456756115 -0.04525935649871826 -0.007137269247323275 0.022960897535085678 -0.00219331169500947 0.01779973693192005 -0.04488484933972359 0.027611367404460907 -0.021274283528327942
Centerpartiet,-0.0604974627494812 -0.007355356123298407 0.06144767627120018 -0.0381598100066185 -0.05676499009132385 0.01734394207596779 0.008501678705215454 -0.021346142515540123 -0.01051632221788168 -0.04065684974193573 -0.013637064956128597 0.01097861584275961 0.07540079951286316 0.010103944689035416 0.015594272874295712 0.004986816551536322 0.012348003685474396 -0.0376068614423275 -0.06390064209699631 0.020924506708979607 0.043273117393255234 0.02721560001373291 0.037029724568128586 0.01839490234851837 -0.004967529326677322 0.001760024344548583 0.047157060354948044 0.019731927663087845 0.004300358705222607 0.028539147228002548 0.00015031050133984536 -0.040320586413145065 -0.01927751488983631 0.05254542827606201 -0.01308160275220871 0.020979395136237144 0.05652164667844772 0.009018168784677982 0.007558317389339209 0.02368384227156639 0.027713477611541748 0.02632535621523857 -0.0035489487927407026 0.12494075298309326 -0.015570374205708504 0.03461046516895294 0.05234640836715698 0.021930359303951263 -0.023430123925209045 -0.031891487538814545 -0.014505069702863693 -0.022006884217262268 -0.03620161488652229 -0.0010839732130989432 -0.006861420348286629 0.01113525964319706 -0.00678608100861311 0.009790537878870964 -0.04279112070798874 -0.005585042294114828 -0.02950071543455124 -0.045663826167583466 -0.044525161385536194 -0.019757365807890892 0.006958849262446165 -0.02321626991033554 0.015679990872740746 0.01340475957840681 0.00027417641831561923 -0.013009211048483849 -0.020619358867406845 0.016924887895584106 0.005711518228054047 0.004636518657207489 -0.025654606521129608 -0.008248971775174141 0.003649553284049034 0.0064498670399188995 -0.018089696764945984 -0.010352461598813534 0.03852655738592148 -0.011250916868448257 0.005472860299050808 -0.0028581079095602036 0.013671744614839554 0.023539647459983826 -0.03186660632491112 -0.02521975338459015 0.007439138367772102 0.04956376552581787 -0.019839081913232803 -0.007762057241052389 0.011213111691176891 0.0004958733916282654 -0.01777750253677368 -0.0059351008385419846 -0.007311119697988033 -0.03235967457294464 -0.01602996326982975 -0.005265264771878719
Taib Šišić,0.006350872106850147 0.036762312054634094 0.008592013269662857 0.002670988440513611 0.00640485156327486 0.04817803204059601 0.01203332468867302 -0.04008742794394493 0.006845106836408377 -0.0012771692126989365 0.00273970072157681 -0.028306428343057632 -0.03306465223431587 0.008045519702136517 -0.01578451134264469 0.008422255516052246 -0.027393072843551636 -0.01208642777055502 0.02529815584421158 0.0005405284464359283 -0.007243051193654537 -0.002591797150671482 0.009878363460302353 -0.00918545387685299 0.01228824071586132 -0.01078432984650135 -0.010469880886375904 -0.01651111990213394 -0.013644292950630188 0.00019062310457229614 0.031961970031261444 0.006509918719530106 -0.004720356781035662 0.015947945415973663 0.004772599786520004 -0.01320783980190754 -0.005140068009495735 -0.016150834038853645 -0.03210335969924927 0.017329033464193344 0.012949230149388313 -0.0006776498630642891 -0.00865974836051464 0.11101862788200378 0.013089440762996674 0.019749335944652557 0.005740009248256683 -0.0038024219684302807 -0.006560905836522579 0.0005326466634869576 -0.027435682713985443 0.009911020286381245 -0.0110941706225276 -0.01658240146934986 -0.023226143792271614 0.01750500127673149 0.01805921643972397 -0.015019528567790985 0.00781666673719883 -0.01728561706840992 -0.024446874856948853 -0.008407533168792725 0.016913261264562607 0.00493471696972847 0.00490762572735548 0.0008966255118139088 0.0019069539848715067 -0.0009121951879933476 -0.005268555600196123 0.0017379592172801495 -0.017359659075737 0.01141366083174944 0.010042961686849594 -0.00837872363626957 -0.008003423921763897 -0.008919654414057732 -0.009758716449141502 0.0014611032092943788 0.01794658787548542 -0.006607727147638798 -0.0019198572263121605 -0.001667505712248385 0.0002956909593194723 -0.0030132171232253313 -0.009468458592891693 0.004691766574978828 -0.00682431273162365 -0.0015108957886695862 -0.007366507314145565 0.004315177910029888 -0.004027814604341984 -0.0030289061833173037 0.007219298742711544 -0.010725723579525948 0.0017257074359804392 0.025633078068494797 -0.000167852733284235 -0.014894355088472366 0.011679106391966343 0.0004646382003556937
The Swedish Family,0.015209252946078777 0.03206055611371994 0.007155347149819136 0.01062397938221693 -0.005773203447461128 0.0032276841811835766 -0.027357157319784164 0.025929521769285202 -0.005539657548069954 0.0025661922991275787 -0.016819989308714867 -0.03248026967048645 0.016529012471437454 -0.022597070783376694 -0.0208617951720953 -0.007255170494318008 0.012639876455068588 -0.013535292819142342 -0.0001710952928988263 -0.0014654251281172037 -0.00883586797863245 0.003305446822196245 0.003955662716180086 -0.013473870232701302 0.010321760550141335 -0.010153073817491531 0.012816295959055424 0.0009533185511827469 0.0025087534449994564 -0.006971069145947695 0.012813734821975231 0.0018869702471420169 0.008832855150103569 0.04007858783006668 0.0045448667369782925 -0.005706725642085075 0.019925745204091072 0.00017898925580084324 0.007534008473157883 0.024664826691150665 -0.004684212617576122 0.01251070573925972 -0.008224472403526306 0.13066250085830688 0.05925539508461952 0.04644990712404251 0.003034597495570779 -0.015082607977092266 0.004667604807764292 -0.01160389930009842 -0.004352530464529991 -0.02893119305372238 -0.011689892038702965 0.017749588936567307 -0.021457938477396965 -0.008075989782810211 0.019621331244707108 -0.007358642760664225 -0.0013301492435857654 0.011249315924942493 -0.017323127016425133 0.0043455082923173904 0.024852542206645012 -0.0031813057139515877 -6.154354196041822e-05 -0.001686070580035448 -0.009470250457525253 0.001746216556057334 0.0018968833610415459 -0.016257256269454956 0.004807337187230587 -0.015548191964626312 0.01803036406636238 -0.06142178177833557 -0.019891446456313133 0.010293540544807911 -0.006996592506766319 0.027446866035461426 0.006144715007394552 0.009402640163898468 0.006651675328612328 0.008391711860895157 0.00047062491648830473 -0.00923205353319645 -0.005532261915504932 0.011513078585267067 -0.0037549673579633236 -0.007710250560194254 0.013093027286231518 -0.00616050511598587 0.014194694347679615 0.014445039443671703 -0.012497560121119022 0.013043390586972237 -0.054568417370319366 -0.010800144635140896 -0.01960005797445774 0.002061230828985572 -0.007592696696519852 -0.009553778916597366
Djurgårdens IF,-0.03692614287137985 0.011086009442806244 0.03902813047170639 0.010239738039672375 0.007642894517630339 0.014174077659845352 0.007827436551451683 0.008910585194826126 -0.010098079219460487 0.0057510617189109325 -0.010123377665877342 -0.02783966436982155 0.005428469739854336 -0.017072446644306183 0.023390308022499084 -0.0118655264377594 -0.024088017642498016 0.0037398580461740494 -0.0065248566679656506 0.002733606845140457 -0.015184673480689526 0.0116681894287467 -0.004382383543998003 0.01272541843354702 -0.009488662704825401 -0.007309812121093273 0.003082181792706251 0.001025560311973095 0.003315902315080166 -0.00803687609732151 0.013112567365169525 -0.013338515534996986 -0.015674743801355362 0.02023153007030487 0.005612708628177643 0.027922173961997032 0.020279549062252045 -0.01867757923901081 -0.016847427934408188 0.021753011271357536 -0.016430586576461792 0.007438263855874538 0.002639103215187788 0.10946719348430634 0.007749574258923531 0.033413879573345184 0.03190070390701294 0.04238152503967285 -0.0076497881673276424 0.004351390991359949 -0.014369290322065353 -0.029328133910894394 0.00843716785311699 0.010420816019177437 -0.03322587534785271 0.03416752070188522 0.04397350549697876 0.009496944025158882 0.014237968251109123 -0.011728941462934017 0.0007460852502845228 0.007871541194617748 -4.3050058593507856e-05 -0.0159022007137537 -0.010160625912249088 0.006391015835106373 0.0025995736941695213 0.005181754007935524 -0.013575590215623379 0.019039731472730637 -0.025817621499300003 0.0007199852261692286 0.029515545815229416 -0.03128502145409584 -0.007802275009453297 0.006665430497378111 -0.018792521208524704 -0.016002578660845757 0.003962310962378979 -0.008410577662289143 0.016177646815776825 0.016665466129779816 -0.0026349490508437157 -0.004851914010941982 -0.006601868197321892 -0.0224162545055151 0.012219267897307873 -0.01404392346739769 0.013978222385048866 0.017213881015777588 -0.014758465811610222 0.0025484689977020025 -0.001193701522424817 0.0023632044903934 -0.011300809681415558 0.010041261091828346 -0.021740369498729706 -0.02439117059111595 0.002129577100276947 -0.03080705925822258
Ikenna Abika,0.006282927002757788 0.06967715173959732 0.01103136595338583 0.03136102482676506 0.04573389142751694 0.026560872793197632 -0.03921668231487274 -0.03144443780183792 0.02658902481198311 -0.029160885140299797 -0.013864031992852688 0.007302034180611372 -0.03791282698512077 -0.025119950994849205 0.005175619386136532 -0.03297138586640358 -0.027254808694124222 0.002751735271885991 0.0031084404326975346 -0.0005558147095143795 -0.01234319806098938 0.014651409350335598 -0.02141401171684265 0.0070731076411902905 -0.004371122922748327 0.0144874332472682 0.007968160323798656 0.008268075995147228 0.00504044396802783 -0.030277449637651443 0.01923496089875698 0.00961308367550373 -0.007251282222568989 -0.001187825226224959 -0.002148110419511795 -0.009287103079259396 0.004710219334810972 -0.0117326769977808 -0.042504578828811646 -0.010687468573451042 0.03517136722803116 -0.0006428949418477714 0.001929364399984479 0.1733493208885193 0.01571734994649887 0.016713086515665054 0.017591526731848717 0.008485455065965652 0.025138894096016884 -0.019113656133413315 -0.019052183255553246 -0.0028922229539602995 0.01376123446971178 -0.014545701444149017 -0.012974271550774574 -0.002867982489988208 0.03679632768034935 0.02583163045346737 -0.00254046986810863 -0.03499878570437431 -0.0017075705109164119 -0.010004526935517788 0.0011118538677692413 -0.019709009677171707 0.0057702455669641495 0.00922925304621458 -0.0034466558136045933 0.005409213248640299 0.0017863207031041384 -0.008071279153227806 -0.01933502033352852 -0.00965955387800932 0.0252250786870718 -0.03637870028614998 -0.034188639372587204 -0.02297106757760048 -0.04235552251338959 0.0015511724632233381 -0.0014049065066501498 -0.0122474804520607 0.0021157790906727314 -0.008977074176073074 0.027134865522384644 0.011032260954380035 -0.027795925736427307 0.005635065492242575 -0.004337666556239128 0.007599364500492811 -0.011568989604711533 0.0040463344193995 -0.0010053646983578801 0.0006463599856942892 -0.007430971600115299 -0.012454749085009098 -0.014248587191104889 0.011022964492440224 0.0029604248702526093 0.014575280249118805 0.025094633921980858 -0.016624804586172104
